2708 128
163 0.122532174 0.7447627 -0.23738398 -0.36545363 0.23583053 0.041349564 -0.37402886 0.034144253 -0.415715 0.3929579 0.14695466 -0.18277 -0.106044635 0.07328543 0.05507595 -0.29593843 0.4446043 -0.10496041 -0.17666242 0.41641554 -0.1405642 0.05749968 0.46608368 -0.5227417 -0.23263812 -0.19827467 -0.099592075 -0.10970541 0.001396231 -0.7229527 0.46910587 -0.115450665 0.3399943 -0.16670074 0.34677333 -0.13198264 0.120493114 -0.0129493335 -0.074009754 -0.0065543596 -0.017807815 -0.7037134 0.30523536 0.7477777 -0.10053155 -0.017968833 -0.49244434 -0.24788235 0.16612607 0.44339737 0.48607314 0.25658694 0.48850346 -0.15126331 -0.38619372 -0.030259205 0.0834109 -0.07727689 -0.06297111 0.13475373 0.19954105 -0.50886214 0.28639975 -0.20167053 -0.32404864 0.17253684 0.081389695 0.13721196 0.17402048 0.25185338 0.24161252 0.3601002 -0.19210568 0.23894617 0.09646508 0.13046274 -0.25548792 -0.30268148 0.07659566 0.0342996 -0.18829899 0.6036558 -0.035580724 0.122329675 0.059727136 -0.16536483 -0.46874407 -0.03148299 -0.37650692 -0.339479 0.18539572 -0.32870585 -0.09055596 0.33136758 -0.597044 -0.3580177 -0.14843069 -0.53497964 -0.3924883 0.39283153 0.16271517 0.17471988 -0.31566623 0.27948067 -0.49416533 -0.047916103 0.088212624 -0.20514503 0.1891676 0.16417578 -0.12593909 0.084172666 -0.38609546 -0.26194337 -0.34512666 -0.883083 -0.12176799 0.17227013 0.08190437 -0.081557594 0.03501842 -0.16910379 0.040444456 -0.29202253 0.072314434 0.20484968 0.44789547 -0.03061235
427 0.057306044 0.29019305 -0.10542212 -0.43894657 -0.16746156 0.10194878 0.4100569 0.38776773 -0.17252782 0.5821434 -0.19484586 -0.33598965 -0.39789182 -0.017929295 0.64993215 -0.3258333 -0.17019892 -0.112133585 0.1258324 0.4962573 0.051926624 0.13227011 0.428224 0.5851042 0.5697858 0.03265681 0.0464155 0.289972 0.01922298 -0.063038245 -0.28825784 -0.2389827 0.07394238 0.19382218 0.34856164 -0.09028288 -0.12443898 0.044084944 -0.38083825 -0.57644254 0.20011118 0.17600092 -0.28840333 0.073117934 -0.038673025 0.21897589 0.5369988 0.019920051 0.50893915 0.28403777 0.59438103 0.114459835 0.09109851 -0.3471641 -0.3925703 -0.37505105 -0.13554414 0.32978907 0.33478877 0.55469894 -0.36781737 0.04314873 0.09696733 0.286715 0.42998204 0.13378394 0.5055837 0.5185008 0.20449035 0.40475854 0.48339716 0.12243461 0.3035827 0.61675674 -0.07194886 -0.05148261 -0.6734991 -0.56781304 -0.45451018 0.13258265 0.6134185 0.57853115 -0.20411009 -0.3009553 -0.57078075 0.00711686 0.29171318 1.1229626 0.025448207 -0.20825875 -0.25251892 0.18920115 -0.13644363 0.23791404 -0.52245253 -0.025768068 -0.00075871253 -0.24744341 -0.29877174 -0.030671857 -0.14142907 0.39321005 -0.7479811 0.05298835 0.23372419 -0.056027204 -0.21354344 -0.73800933 -0.26627496 -0.4164911 -0.10230661 -0.00032926106 0.30015963 0.2622993 -0.08111074 0.06310864 -0.3134808 -0.3084163 -0.28891882 0.17964704 0.18928635 0.4500331 -0.11292817 0.025566993 -0.11131802 -0.018325204 0.4485597 0.024689464
747 0.33485126 0.33102706 -0.35970742 0.09951199 0.12678273 0.012853112 0.3785609 0.043625098 0.08508296 0.54207695 -0.11883781 -0.00530636 -0.2895317 -0.18037249 0.7482754 -0.20629275 0.2454337 0.054099787 -0.3249123 0.31987908 -0.6195107 0.02558269 0.3861166 -0.18632749 0.29776376 -0.2393605 -0.14712414 0.09567782 0.16136783 0.22164892 -0.3211223 -0.12227862 -0.18375713 0.81409067 0.11517972 -0.19376755 0.49454516 -0.13917567 -0.28673178 -0.027336685 0.68500096 -0.23410209 0.30733293 0.030654803 -0.20289715 0.4017366 0.14443839 0.22192585 0.39413676 -0.06862315 0.1092129 0.15472111 0.2431113 0.13721235 -0.6235301 -0.63317996 0.48791143 -0.080101945 -0.12095022 0.8378475 -0.21016315 0.21734063 -0.10174796 -0.14373878 -0.21312128 -0.014250375 0.581788 -0.20414698 -0.46500695 0.8296113 0.77492607 0.31266177 0.37860894 0.3395256 -0.15147866 -0.051424157 -0.11863661 -0.055889133 0.12467894 0.08962689 0.2671705 0.1886523 0.74719536 -0.2170522 -0.15478306 -0.42682347 0.7165974 0.3702423 -0.23261751 -0.2036947 -0.35880333 0.025614815 0.23857012 0.023759667 -0.7989808 0.24605559 -0.03304555 -0.5214059 0.60286486 0.30571064 -0.013614798 -0.24594286 -0.64417017 -0.4036023 0.2638584 -0.24742942 -0.16627999 -0.17979833 0.08195197 -0.47440594 -0.46356624 -0.34062412 0.2503325 0.16523035 0.13644102 0.01905878 -0.58914125 -0.787929 0.083952874 -0.025398215 0.36234504 0.009992077 -0.19643398 -0.37952706 0.1117417 -0.56215423 0.29174256 0.75659907
565 -0.15170798 0.8241755 -0.4507635 -0.07953827 -0.51745903 0.037591822 -0.39708406 0.16917185 0.71820825 0.34176716 -0.714299 -0.37869424 -0.055873606 -0.4372527 0.29798502 0.13506553 -0.10619033 -0.12243318 0.5864964 0.15282436 0.187023 -0.439729 0.35370433 0.54777807 0.3961126 0.12290312 -0.2453849 -0.029022548 0.8388217 -0.32835466 0.20992497 0.3872808 0.25221345 0.6525511 -0.07915488 -0.39729023 0.1961636 0.06367461 -0.04825144 -0.015005144 -0.19849312 -0.41728586 -0.13179344 0.03581594 -0.5803257 0.13836055 -0.49875873 0.16197641 0.116232716 0.019124012 -0.2450776 0.03489144 -0.36849198 -0.4276608 0.013073301 -0.34440067 0.4948559 -0.50244564 -0.021310348 -0.03726226 0.38960493 0.1804904 -0.04808495 -0.41000217 -0.20905519 -0.048533164 -0.017370904 0.15237242 0.055646315 -0.18758434 0.58499557 0.32425448 0.38658726 -0.04438453 -0.29445198 0.04379108 0.018305624 -0.3935521 -0.030692682 0.16454831 -0.08722736 0.32263747 0.56809163 -0.38150454 0.12787992 -0.23688975 -0.13851734 0.20327336 -0.1364262 0.34735522 0.10231461 0.59660405 -0.42288604 0.050003443 -0.6760014 -0.1607561 -0.5306148 -0.70800614 0.31636894 0.03796001 -0.26406488 0.08163657 -0.3633173 0.382633 -0.0028762028 -0.019741936 -0.12550117 -0.15317494 0.63118917 -0.7153626 0.61273813 -0.0300524 -0.38810477 -0.021306176 -0.064622484 0.44390294 -0.32133824 -0.5463296 -0.15463796 -0.55283767 -0.32693663 -0.14692402 0.43659425 -0.04586314 -0.5560302 -0.21296395 0.08386324 0.33730578
611 0.2000736 0.30156362 -0.13285704 -0.03835751 -0.19668032 -0.15641052 0.7024911 0.038960297 0.40024972 0.69886684 -0.10368619 -0.5225486 0.5297128 -0.378848 0.5925177 -0.054090515 0.5041499 -0.19826584 0.4299147 -0.41434556 -0.064189576 0.1813557 0.22892112 0.62059593 0.13031074 0.03242256 -0.20842552 0.18285364 -0.12576568 -0.7023437 -0.38472018 0.19702056 -0.14529946 -0.08991533 0.15042517 -0.0656533 0.6026145 0.23614392 -0.19491571 0.378017 0.01908425 -0.14354712 -0.26667017 0.20402227 0.43424898 -0.05176399 0.36284482 0.34729996 0.19139595 0.33973515 0.20467716 0.5126191 0.22399735 0.5645394 -0.6911065 0.2899613 -0.23683536 -0.14107111 -0.618721 0.46596155 0.2789442 -0.34331772 0.9173366 -0.40770257 0.44855064 -0.6343366 0.5306503 -0.56991076 0.7367903 0.28101236 0.22066648 0.63841355 0.37859866 -0.14578815 0.323292 0.72805274 0.41083515 -0.49000242 -0.48532218 0.23107997 -0.098502524 -0.20670074 0.30216956 -0.6190115 -0.0020053745 -0.27070138 0.5467809 -0.22756645 0.3117524 0.49900392 -0.3900842 -0.47689763 0.16419083 -0.19659097 -0.50323015 0.10684998 -0.8037664 -0.4268938 0.13289008 -0.16901177 0.015414879 -0.08764392 -0.76627815 0.37226054 0.23962635 0.68933123 0.039029382 -0.09214647 -0.2700709 -0.1811078 -0.025904905 -0.6638141 0.028526261 0.07439984 -0.28968018 0.15438245 -0.68017834 -0.73105127 -0.2144254 0.27301762 0.6948674 0.33109128 -0.2795138 -0.23876068 0.20748068 0.10330435 -0.17313197 0.7248338
74 0.54530954 0.45017156 0.047232106 0.072743066 0.29540855 -0.08253847 -0.5904705 0.573073 0.4219765 0.22740354 0.009855963 -0.5171382 0.7937743 -0.6270491 0.4078473 0.10341098 -0.29582343 -0.18482064 -0.23355053 0.01988891 -0.28069302 0.38153234 0.3319515 -0.29256457 0.5647508 0.6364365 -0.12976208 0.6117769 -0.12819844 0.009887535 0.027150499 -0.3766176 -0.08183688 0.5471311 0.068236634 -0.40230182 0.28485715 0.117256895 -0.27578706 -0.29982874 0.57397264 -0.12365958 -0.064957954 1.0866859 0.2883958 0.34113517 0.8841144 -0.047102448 0.2556137 0.2797051 -0.30197716 -0.107369855 0.087997004 -0.3720438 -0.098316915 -0.31284904 0.24006234 0.024009535 0.32924685 0.3676051 0.75720996 -0.38591212 0.3735599 -0.4926952 -0.4801089 -0.30742633 0.36207438 -0.31693208 0.65752065 0.12614295 0.1318046 0.4767789 0.15083168 0.104976915 0.036853567 0.048804436 -0.11229819 -0.30214253 -0.49491233 0.24386413 -0.19314472 -0.03421443 0.08367196 0.7080023 0.37095508 0.2325275 0.05775768 0.537197 0.11663063 0.2966637 -0.31235775 0.4253711 -0.45522782 -0.06129426 -0.25078577 -0.18996163 -0.28269163 -0.47138906 0.268579 0.22729751 -0.19450997 0.20237021 -0.12696098 -0.033763904 1.38481 -0.18254158 0.42436054 0.16822194 -0.1165705 -0.25065365 -0.2310224 -0.43838507 -0.6904687 -0.27404276 -0.03189938 -0.024361035 -0.4064689 -0.35755694 -0.15611146 -0.19878836 0.48914146 0.16606371 -0.04954995 -0.14057197 -0.14827129 -0.33587843 -0.16539657 0.05431168
552 -0.14620739 0.55866694 -0.47848818 -0.5127604 -0.5239977 0.15874754 0.16092005 0.47485977 1.0140615 0.23855175 -0.3277258 -0.028717415 0.0038535185 -0.5655946 0.6611951 0.22689909 0.0086313905 -0.046909284 0.61912477 0.44876915 0.043938406 -0.7031129 0.27662906 0.48132005 0.10995082 -0.11399264 -0.3996079 -0.38243303 0.21454225 -0.16798323 0.24004371 0.7012144 0.42791557 0.16609132 0.26573366 0.09617022 -0.12375693 -0.268089 0.29319614 -0.09687402 -0.053972106 -0.34184548 0.15305227 0.22599891 0.0089642145 -0.35122034 -0.18214045 0.18463112 0.18257016 -0.31103647 -0.62271315 0.22662486 -0.43026084 -0.26489815 -0.37127024 -0.6324431 0.18350095 -0.012738813 0.0650741 0.35059816 0.4332788 0.44690296 -0.36005706 -0.48788318 -0.57876295 -0.22198719 0.44106665 0.016332466 -0.107138954 0.07930044 0.52015114 -0.096506864 0.11425955 -0.23224047 -0.3367223 0.04509068 0.34098256 0.51866704 -0.18161546 -0.13052699 0.049828213 -0.17203256 0.75099045 -0.38555855 -0.14747751 0.14251454 -0.31422898 0.2752148 -1.0300986 0.5993681 0.54744315 0.13412929 -0.467927 0.075621456 -0.8825616 -0.2857603 -1.1994699 -0.2373885 -0.23148338 -0.44945142 -0.5583099 0.11378414 -0.5706661 0.8206911 0.112410516 -0.12621424 0.038935613 -0.17332394 0.36687595 -0.41642746 -0.15156327 -0.24667467 -0.20228523 -0.24761334 -0.72544867 0.13782044 -0.073730655 -0.5212373 0.030113598 -0.08780849 0.1319419 0.12884812 0.0760242 0.124633834 -0.368434 0.39180627 0.9342409 0.10345271
430 0.119497634 -0.045430806 -0.33608338 -0.09526514 0.15607531 0.050609197 -0.28577778 0.6251087 0.19699901 -0.28818145 -0.7961466 0.008048362 0.63465726 -0.35787046 0.07332945 0.54823464 0.5376419 0.015192243 0.00061832 0.030833377 -0.10533456 -0.11481893 -0.23300047 -0.37440625 -0.12820889 -0.4939548 -0.26993397 -0.008067961 0.5511975 -0.24658152 -0.48939466 0.43483904 -0.19279605 0.020274192 0.31692126 -0.29184428 -0.3685918 0.13521507 -0.5044559 -0.617425 -0.071917675 -0.3222953 0.54982996 0.76723087 0.43062666 0.08004637 0.49650803 -0.13796918 -0.20783891 0.22376151 0.09043477 -0.418178 0.28382164 -0.059731122 0.38855642 -0.16705175 -0.2110722 0.07783516 0.25323167 -0.36714113 0.16097505 0.4098397 0.19078006 0.18732376 0.31434926 0.21938707 1.1519786 0.7836065 0.20975438 0.1897532 0.33087966 0.50839585 0.07613315 0.10098448 0.52846295 -0.35533473 -0.045359183 0.1330901 0.22118495 -0.02896112 -0.5833227 0.47103494 0.41327044 -0.34020424 0.008357685 -0.02887261 -0.07529791 0.6080241 0.6027042 -0.25900945 0.23446366 0.41576323 -0.17865396 0.37033868 0.10405216 0.09697163 -0.68426645 -0.38611 0.17903179 0.24087599 -0.51876324 0.19419794 -1.0903602 0.3699042 -0.16815297 0.24028553 0.92340666 -0.5195663 0.17008853 0.86042106 -0.24125643 -0.047093507 -0.28190508 -0.21505708 0.43577552 -0.4396314 0.121604696 -0.45748278 -0.6376985 -0.22075914 -0.24800675 -0.23233494 -0.06766006 -0.13533472 0.18457995 0.5172877 -0.23398843 0.0040503205
344 0.2198581 0.064066924 -0.13892668 -0.33979255 0.5268598 -0.06250019 -0.53124547 0.6364048 0.17913882 -0.22625586 -0.48860443 -0.1442947 0.5116963 0.32219923 0.16028231 0.5369494 -0.18939973 0.2290016 0.38132071 -0.34309387 -0.006826502 0.05483608 0.20289415 0.36743316 -0.31530786 -0.6871472 0.32514933 0.05182753 0.34718692 -0.36974284 -0.20468588 0.844547 0.86664754 -0.25556093 0.4399737 0.14229707 0.65843415 0.19107825 -0.39044458 0.34941936 0.21578197 0.16079403 0.2582065 0.29688105 -0.4492119 0.20606104 -0.2984982 -0.48570606 0.41014248 -0.40385035 0.4960588 0.35416976 -0.0608363 -0.0477172 0.15356323 -0.6598059 -0.27009645 -0.7585556 -0.29056522 -0.61098796 0.4865047 0.3491471 0.36492005 0.7754966 -0.2724229 -0.2566878 0.5915385 0.5463265 0.13914357 -0.5133972 0.27937934 0.012002548 -0.040474914 -0.60338527 0.021937737 -0.6925363 0.2674317 -0.3053281 0.16462976 0.11433231 0.17918137 0.2469698 0.2196129 0.18316685 -0.42488697 0.23597714 0.54043394 0.5220063 -0.48992804 -0.34424633 -0.10597968 -0.057765417 -0.092575006 0.51894987 -0.6602893 0.6669524 -0.9118228 -0.5475306 0.36915338 -0.36380804 -0.23330462 0.40556797 0.21111546 0.048610326 0.32810503 0.17235883 -0.05513954 -0.5369301 -0.32173148 -0.39454207 -0.89737487 0.35504457 -0.99340427 -0.08812715 0.563931 0.38071135 0.87603354 -0.23548324 0.40743846 -0.041040804 0.022231873 -0.69809246 -0.27780172 -0.21757413 -0.099781856 0.06042591 -0.13797133 0.048772912
638 -0.007337814 0.7097837 -0.20155919 -0.1229997 0.108400434 0.15053532 0.07824864 -0.0032692668 0.07099209 -0.27917036 -0.5124827 0.17304681 -0.60792154 -0.17762016 -0.08284491 -0.041819282 0.16847868 0.30838904 0.46310785 0.0384989 -1.1711266 -0.20795977 -0.040181328 -0.23587066 -0.25381333 -0.8579849 -0.089211404 0.6129571 0.32300022 -0.17147204 -0.20337635 0.9006842 0.50466204 -0.06966168 0.18319194 -0.34860796 -0.14075941 0.028803024 0.34303948 0.08961268 -0.022920428 -0.35958534 0.045571573 0.25847107 -0.1742691 0.171422 0.24727613 -0.38939416 0.8720269 -0.49896827 -0.1747159 -0.13725595 -0.53358245 -0.75082517 -0.23302199 -0.06940105 0.862915 -0.5440701 0.12021401 -0.59293234 0.1880672 -0.15987577 0.31462768 -0.17599776 0.23863406 0.3902864 0.7901972 0.4427326 0.085108556 0.30413243 -0.00032938053 -0.010654041 0.3294748 -0.54750854 -0.025145816 -0.5132329 -0.18765341 -0.39336747 -0.28964302 -0.58414686 -0.3711047 0.28501862 0.38145968 -0.059115026 -0.17854805 0.3106772 -0.22483733 0.07136544 -0.22048584 -0.6351536 -0.7769779 0.38459837 -0.0042244457 0.42004645 -0.28052607 0.770433 -0.5217169 -0.27397847 -0.16680323 0.09802256 0.2641686 -0.3350816 0.024645146 -0.1442713 0.3809377 0.088543035 0.8885337 -0.48505673 -0.5462501 -0.025531054 -0.6159069 -0.07641469 -0.44356632 0.090444565 0.50878173 0.35806167 -0.31024003 -0.1198001 -0.10929558 0.14362429 0.16973041 0.031386808 -0.3277969 -0.04671331 0.098771125 -0.14202096 -0.36044267 0.5920424
157 0.09757872 0.43939322 0.061973564 0.18233266 -0.092174605 -0.20770247 0.01219788 0.4077984 0.113961175 0.21612428 -0.41061258 -0.09606158 0.42584363 -0.21009581 -0.3412061 0.055579316 0.032345172 0.19790512 0.14246759 -0.58449656 -0.004911966 0.43152747 -0.6122491 0.14992961 0.69931406 0.097378865 -0.058492646 -0.08153023 -0.009816914 -0.44788933 0.09962449 0.3955333 0.19374095 0.124084555 0.38314182 -0.094144024 -0.10199509 0.3467222 -0.3452944 -0.08437429 0.2608852 -0.5100725 0.13529822 0.066835724 -0.058774576 -0.34699082 0.78993946 0.05013431 0.07379427 0.48461074 0.45913193 0.36526683 -0.16535665 0.17862092 0.20117511 0.024544958 -0.22032872 -1.0168866 0.16984582 0.1854201 0.306865 -0.105871715 0.09393445 -0.6339142 -0.50116146 -0.6888239 0.80441695 0.010612477 -0.017031578 -0.01976798 0.09322743 0.15978025 0.31847286 0.5379122 0.6509321 -0.16767077 -0.1299433 -0.8371521 -0.32724544 -0.41471118 0.38814306 -0.31350917 -0.36870214 -0.902664 -0.56916636 0.27378604 -0.41921002 0.7091413 -0.09384017 -0.70359737 -0.18833268 0.07255311 -0.0849464 0.08714753 -0.31108811 0.32130152 0.08315767 -0.44999555 -0.15680103 -0.40413037 -0.36328214 0.39962584 -0.5529239 0.91146034 0.9049937 0.16977444 0.08986167 -0.08092965 0.06805564 -0.31148088 -0.41786978 -0.9574703 0.27107435 0.05044219 0.37389463 0.60786283 -0.7969848 0.13196075 0.6470238 0.0005240139 0.30812353 0.32174963 0.38883132 -0.6938799 0.2952274 0.14588162 0.10794283 0.450944
566 0.012902896 1.199621 -0.5183684 0.1299049 -0.2716302 0.38556898 0.04764023 0.17481245 0.04097325 0.169777 -0.38188723 -0.08985899 -0.39686424 -0.42813426 0.8375886 -0.5007208 0.30366302 -0.27685785 0.2082536 0.01099721 -0.34913495 0.24921034 0.3184399 -0.16700627 -0.026524337 0.34105927 -0.106223196 -0.40624437 0.60959476 -0.034331847 -0.35001108 0.43967623 0.49029428 0.25152302 0.6342964 -0.067994416 0.19724935 0.12477147 0.13869734 -0.2775445 -0.045406338 -0.16829649 0.32551607 0.3317439 -0.4970121 -0.3250099 -0.14774935 -0.3368001 -0.08977946 0.18560274 -0.29283604 0.45916855 -0.6243691 -0.33377957 -0.350252 -0.30180636 -0.10087512 -0.052818157 0.37557235 0.4775047 -0.59275967 0.057189263 0.10157829 -0.43272737 -0.031433858 0.5713854 0.2745336 -0.064086474 0.031476896 0.38414294 0.4049996 -0.24406287 0.2689605 -0.3341517 0.23483704 -0.05349241 0.3312283 -0.024734601 -0.60277975 -0.18860877 0.16964516 -0.07824216 0.5290105 -0.1679167 0.026893336 0.40697268 -0.22478615 -0.53031 -0.33752176 0.6524526 -0.056715775 0.15172721 -0.6099382 -0.30275223 -1.1351979 -0.4656675 -0.40945104 -0.12532684 0.1821755 -0.28619364 -0.04778413 -0.45367035 -0.48613906 0.3717555 0.24828333 -0.27279475 0.28426504 -0.7875335 0.09236389 -0.62694794 -0.183895 -0.1915284 -0.75323695 0.25887996 0.036160305 0.8292947 -0.21696848 -0.3042131 -0.37792996 -0.2854462 -0.2629437 -0.24082264 0.093587235 -0.39238653 -0.31472018 -0.2564582 -0.0019869474 0.11563881
745 0.03338395 -0.34877864 -0.17497209 -0.08943404 0.5195788 0.29735088 0.71244365 0.504769 -0.42652425 1.1951556 -0.16488802 -0.13612704 -0.14672655 -0.19296709 0.56473726 -0.26603758 0.5459276 -0.19043516 -0.15590881 0.020459652 0.20619921 0.59344923 0.35127684 0.51421386 -0.09289779 -0.5676204 0.040025543 -0.04127813 0.3556258 -0.026000964 -0.06295081 0.37908807 0.20730628 0.10480689 0.35102594 -0.8927463 0.1720199 -0.034011215 -0.2844217 0.07721228 -0.076619424 0.07009343 0.2915896 -0.21921681 0.27413818 0.1797955 0.0007625071 0.3201966 0.58648694 0.32575873 -0.3050142 0.15840426 0.5587064 -0.34438765 -0.26378608 0.067851536 -0.34807462 -0.6642589 0.23048538 0.6189658 -0.07576482 0.049645156 0.42436716 -0.84139603 0.09049016 -0.03332768 0.7994496 0.20914914 0.2695346 0.71216065 0.9127062 -0.0399511 0.02520945 -0.17035289 -0.3197205 -0.062424097 -0.24321315 -0.24142383 0.09161406 0.11953175 -0.24833992 0.050398167 -0.013727445 0.20774111 0.7549684 -0.73472303 0.9068565 0.3081283 -0.863608 0.2888578 -0.20688075 -0.15073851 -0.31558895 0.03917166 -0.9160012 0.5044607 0.2856502 -0.22322148 0.3142121 -0.08524363 -0.07182446 0.651193 -0.691957 -0.82947654 -0.044194292 -0.033828527 -0.69505006 -0.41588056 0.51959443 -0.46636352 0.20746781 -0.47904953 -0.38606146 0.25718933 0.023765434 -0.113697484 -0.37216434 -0.76118726 -0.1798634 0.28975788 0.28433812 -0.0761243 0.062175073 -0.19395033 0.2692791 0.059325155 -0.1669395 0.3866645
294 -0.20043409 0.64850855 -0.22067188 0.028186621 0.10373547 0.29370776 0.11373963 -0.012959938 -0.07950025 0.26127714 -0.114825204 0.06698192 -0.26030177 -0.24827495 0.5659673 0.3976971 0.15617184 -0.42331466 0.5350063 0.16732168 -0.105875984 -0.122069634 0.24074498 0.0338764 0.6373179 -0.18912768 -0.6485355 -0.14252289 0.67898923 0.27258053 -0.098592035 0.39234564 0.08150644 -0.04919008 0.31912282 -0.09648752 0.61495864 -0.39127824 0.29952976 -0.7228031 -0.007217259 -0.46825784 0.058518626 0.133582 -0.4835066 -0.29024518 -0.4149269 0.7532703 -0.008417671 0.05490133 -0.34923986 0.19911638 -0.35432974 -0.26952246 -0.25150615 -0.3494538 0.19985846 -0.29288417 -0.3326535 -0.09146448 -0.06218245 0.41497856 0.44519028 -0.6662158 -0.2735632 0.36972848 0.1349784 -0.15217212 -0.26277032 0.4352902 0.2692162 -0.014372773 0.68203306 -0.030589547 0.19970079 -0.19582573 -0.046878252 -0.4274084 -0.3531261 -0.07487808 0.040987894 0.002597604 0.7026939 -0.3204423 0.103002295 0.05200959 0.09317349 -0.14685333 -0.8062607 0.40471935 -0.13614653 0.34412488 -0.49269846 0.59886646 -0.91139394 -0.404574 -0.6152418 -0.1684602 -0.40817258 0.4521101 0.11343651 0.06124675 -0.72903603 -0.04767367 0.54493713 -0.41949728 0.24820326 -0.35768595 0.24442498 -0.4431456 -0.22053824 -0.2037707 -0.42065364 -0.42053834 0.0796352 -0.10151542 -0.4925918 -0.36465564 -0.39075494 -0.7036793 -0.33577284 0.24020478 -0.16747174 -0.17855123 -0.44386113 -0.4191053 0.41780722 -0.15405308
576 0.65126127 -0.22038421 -0.5605202 0.37498593 0.28793645 0.5644488 0.2911785 0.50758827 -0.488305 0.024801338 0.109278 0.16274692 -0.50345904 -0.4287255 0.4960052 0.5439138 0.1290013 -0.38452017 -0.5380429 -0.35401255 -0.14907306 0.40309843 -0.1602196 0.27665728 -0.49585846 -0.8719654 -0.6012477 0.5809271 -0.23100363 0.53408015 -0.5319639 -0.18745904 0.23600201 0.10489999 0.18119101 -1.6268781 0.22734772 0.29095852 -0.68195117 0.33462802 -0.009897276 -0.25572842 -0.20755644 0.023040388 0.75808996 -0.13971375 0.41817975 0.22235757 0.3338801 -0.3783761 0.8501143 0.58599883 -0.12562749 -0.29887226 0.14164251 -0.12601869 -0.9164795 -0.22191052 -0.19913548 0.22300129 0.012576583 0.13162996 0.24658163 0.34122598 -0.6993496 0.116201 0.29373324 -0.08522123 0.01240722 -0.475698 0.26009113 0.21661006 -0.31630185 0.29562476 -0.93363214 -0.19709165 0.5632152 -0.5581428 0.21390471 0.11541539 -0.06702703 0.19181736 0.3694249 -0.24294762 0.0156597 -0.47863215 0.23592387 0.28192854 -0.7084318 0.0038616096 -0.6189978 0.0610901 -0.17574497 0.2691398 -0.33933455 0.04377127 -0.055911735 -0.35840863 0.6701848 0.14228116 -0.64366597 -0.05052881 -0.5968126 0.26855242 0.36148143 -0.3879038 0.5419212 -0.7342088 -0.038497753 -0.3062817 0.06345121 -0.96971506 -0.43798074 0.46496361 0.24945697 -0.1064202 -0.43508357 -0.27002034 0.2602625 -0.25947908 0.6250514 -0.034032594 0.11318194 -0.9967788 -0.74553275 0.015277217 0.032759104 0.4634234
523 -0.07610972 0.90793425 -0.8459428 0.39693773 0.4693661 0.29834577 -0.0065113916 -0.18301877 0.00045628345 0.15854965 -0.23538592 -0.94365746 0.34647998 0.082206815 0.6473267 -0.36747262 -0.22363612 0.340386 0.3485147 0.44972897 0.18639788 -0.14971258 0.7177526 -0.051206183 0.13210712 -0.12205155 -0.21016848 -0.19843028 -0.004657858 0.16688718 0.46256566 0.03566269 0.7932184 0.67223746 -0.441951 -0.5059173 -0.10537727 0.15812755 -0.057977907 -0.37308475 -0.50529057 -0.74514276 -0.33293068 -0.013924387 -0.36831623 0.03324627 0.14079818 -0.19837967 -0.24280123 0.081765145 0.25180703 -0.7263319 0.056348704 -0.28883395 -0.18749838 -0.028771719 0.2908288 -0.14605583 0.1418995 -0.5775584 0.16853951 0.35483924 0.538161 -0.32446453 -0.495249 -0.031817444 0.07980667 -0.054485507 -0.13233742 0.37516463 0.6972249 0.31632066 0.4229889 0.009882349 -0.28405446 0.34969908 -0.33142644 -0.25263482 0.0040664664 0.22687827 -0.20794638 0.87122583 0.4278884 -0.3594455 -0.07887239 -0.15316966 -0.49349838 -0.042679608 -0.41784573 -0.34806982 0.20046 0.12852378 -0.5283428 0.09903066 0.26201993 -0.5815799 -0.43725285 -0.43469536 0.1689697 -0.41484618 -0.08759842 -0.22481184 -0.009121819 0.47472814 -0.27916336 -0.20169774 -0.015077643 -0.08791958 0.9468366 -0.32824978 -0.0027884974 -0.11520023 -0.4778537 0.22068067 -0.08157383 0.21832854 0.58648306 -0.36538094 0.4038988 -0.21081246 -0.3249759 -0.41757908 0.26956278 -0.121097535 0.22098982 -0.0054997425 0.024060566 0.50048417
378 0.54129773 0.2263915 0.014642828 0.35641918 -0.7061089 0.35630575 -0.5155169 0.25999832 -0.42530957 -0.0034174395 -0.40487057 -0.4561924 0.35195574 -0.26645574 -0.15727904 0.24973306 -0.02380055 -0.3864904 0.046514485 -0.8823027 -0.18294467 0.60319346 -0.16017057 -0.20645371 -0.4517815 -1.0891352 0.5502757 0.4639736 0.15660973 0.10615009 0.013698235 0.46453446 0.4258345 -0.5038751 -0.31448463 0.16948697 -0.28702578 -0.5664092 -0.053049263 -0.39219585 -0.16917951 0.24304277 0.3687102 0.5798148 -0.10994945 0.04043377 -0.3046519 -0.39414105 0.040678024 -0.1706849 0.13753115 0.07774718 -0.35820985 -0.0035108812 -0.56148094 -0.5422678 0.14720537 -0.51123714 0.68271285 -0.3378211 0.7123588 -0.42435893 -0.6068422 0.38575163 -0.1671138 -0.45195112 0.40658462 0.52806896 0.14098012 0.45164275 0.43353674 -0.18239704 -0.34956 -0.56539285 0.13490492 0.25406542 -0.44986293 -0.16263473 0.09867506 -0.15764175 0.25961962 0.9975405 -0.009376452 -0.47076312 0.15576655 0.059259754 0.12916666 0.10088215 -0.2962759 0.030291805 -0.33282238 0.45904338 -0.3042749 0.62035304 0.008150728 0.54974467 -0.89631164 -0.21582805 0.42580488 -0.19654278 0.15199393 0.18628834 -0.785664 0.13130282 0.26476127 -0.008840591 0.28218096 -0.115857825 -0.069648646 -0.3302689 0.005288224 0.528897 -0.1289054 0.22982195 0.5877912 0.23224308 0.50027335 0.18570301 -0.18842125 -0.7150932 0.7367916 0.021981403 0.26625556 -0.45305693 0.11163409 -0.21453507 -0.28995928 0.4435895
1354 -0.20018697 0.9127122 0.09756205 -0.05605133 0.54197425 0.3214502 -0.03000273 -1.0778201 -0.5048247 0.55301213 -0.5273201 -0.11783657 0.18720564 -0.34611705 0.23220502 0.26374426 -0.9062082 0.3045357 -0.8407421 0.5496786 -0.29581666 0.39833704 -0.43549404 0.6021873 -0.38774315 -0.62410015 0.46650597 0.98024386 -0.9459207 -0.6969872 0.16854498 0.14937636 0.28344625 0.31965986 -0.017512219 -0.33905032 0.64090496 0.46663216 0.5133207 -1.0608865 0.20125908 -0.10086335 0.21959019 0.60778165 -0.16848183 -0.29854894 -0.32495746 -0.45748463 0.0935092 -0.34461358 0.36578968 0.63049567 -0.608763 -0.45649716 -0.5506623 -1.1504356 -0.3163744 0.068929836 -0.017093316 -0.5488353 0.07885551 0.38132474 -0.054664046 -0.004556927 0.64575505 -0.08871955 0.5876576 -0.04798935 0.08602447 0.106894195 0.42214966 0.025031619 -0.34894738 -0.54107136 0.045727033 -0.25284666 0.16286774 -0.5791463 0.6364096 0.9047493 0.2043068 0.33342612 0.04759862 -0.2818332 -0.70343095 0.33220017 -0.081696115 -0.37739262 -0.4681023 0.37683472 -0.0625211 -0.3817292 0.23556954 -0.42291135 -0.10874638 0.3426308 -0.008867505 -0.10349453 0.5192968 0.345307 0.22523457 -0.0040009147 -0.14647813 0.66882956 0.28581205 0.557282 0.8670346 -0.31736195 0.24684493 -0.09533141 -0.55230385 -0.82780164 0.15741669 0.6286476 -0.03843326 0.23356004 0.5743728 0.070903085 -0.24650654 -0.39791787 -0.26617944 -0.3599633 -0.46727777 -0.23453997 -0.370865 0.10856985 0.5925319 0.73194903
793 0.015501131 0.8182178 -0.097961694 0.43857124 0.026172698 0.3902088 -0.2639151 -0.47678164 -0.82288915 0.32682556 0.18243036 -0.7868518 0.31922275 -0.44276056 0.30448058 0.37442353 0.23959163 0.43403104 -0.22548313 0.09212753 -0.32160503 0.1014282 -0.08836436 -0.00094983145 0.2887799 -0.7000487 0.025237443 -0.47914577 0.3304522 -0.550742 0.770639 -0.2618985 0.2908947 0.17048676 0.55726933 -0.22068039 -0.081535324 -0.6353183 -0.17136447 0.15127142 -0.58378375 -0.75237894 0.157807 0.2469549 -0.07790865 -0.15970348 -0.5919127 -0.8732803 0.20599788 1.079591 0.3269186 0.44118857 0.27551383 0.41039795 -0.89724475 -0.18897048 0.12744816 -0.24286665 -0.23237294 0.26080212 -0.09269973 -0.72614133 0.35778672 0.067870684 -0.34132934 -0.08719807 0.37943813 0.45743468 -0.33867836 -0.54393584 0.5868218 -0.10669282 -0.6408412 0.16654052 0.15377696 0.19940463 -0.24422112 -0.041249815 0.40020135 0.0787717 -0.5622728 0.60778123 -0.60287815 -0.28601286 0.19295296 0.010388686 -0.113419145 0.64416826 -0.1261448 0.060667146 0.1467075 -0.1917432 -0.7545355 -0.0271359 -0.66479456 0.27593732 -0.10123125 -0.4545291 -0.19170693 0.43621728 0.18286622 -0.51305455 -0.24323513 0.39941984 -0.06378864 0.30264807 0.05586847 0.2978413 0.18850407 0.75220615 -0.65835637 -0.065873824 -0.40394932 -0.15907785 -0.18981527 -0.91597176 -0.11864368 0.12118626 0.09202721 -0.1213986 0.5354823 -0.5300327 -0.5664234 -0.24147934 0.31138733 -0.13448614 0.4687683 0.26956573
453 -0.37060818 -0.21974683 -0.037023142 -0.5247767 0.39719918 0.016345037 0.13965385 0.18266316 0.53699523 0.1923949 -0.42890722 -0.8718552 0.38887486 -0.42818743 0.51417905 -0.068272546 0.3421582 1.1429946 -0.57029974 -0.35130775 -0.8561295 0.7560301 -0.06691769 1.0787059 -0.08681895 -0.8882882 -0.057453904 0.15721536 0.46682262 0.011070631 0.15561387 0.07721761 0.9087599 0.39557573 0.41957602 0.19316602 0.14132854 -0.12064833 0.2254554 -0.9193564 -0.45481747 -0.37090188 0.29659173 0.21577069 -0.14724453 0.19262868 -0.2729345 -0.43720976 -0.20992927 0.4701816 0.12372155 0.65526855 0.062437654 -0.877859 -0.083994925 0.1739228 -0.28018293 -0.2690724 0.21538965 0.29510203 0.17612259 0.082068324 -0.5240365 -0.15467012 -0.58306664 -0.98552614 0.51251936 0.11640808 0.87354726 -0.7744237 0.105952285 -0.023934005 -0.08705657 -0.7771009 0.43314832 0.11218414 0.5708968 0.025969088 0.7226413 -0.54425085 0.046377715 0.3134916 0.26813456 -0.24118279 -0.042070385 -0.47140768 -0.100153744 -0.21681485 -0.6120491 -0.64136565 0.09070726 0.26603994 0.1553167 0.17335238 -0.38461006 -0.0999849 -0.32355294 0.725203 -0.010450596 0.3121445 0.2869612 0.2069931 -0.064072415 0.30665842 0.36413234 -0.10368784 -0.30412188 -0.22786391 -0.7449797 -0.94275343 -0.21030664 -0.63403004 -0.48479298 0.40782082 0.12573898 -0.29760224 0.27910024 -0.33300808 -0.07707992 0.2519368 0.09718421 -0.49949643 -0.01758994 0.25518084 -0.079234146 -0.116666205 -0.17649394 -0.5229317
672 -0.21127942 0.4831914 0.7352526 0.070605166 0.32740802 0.21582742 0.21467228 -0.13859421 0.29049048 0.014082023 0.11235724 -0.5721496 0.60674345 0.08874848 0.09629987 0.6871227 0.23719569 0.57343775 0.20975585 -0.076284505 -0.9530547 0.46503192 0.1449504 0.64142776 -0.52698517 -1.0549122 -0.22228774 0.6601082 0.72642475 -0.028396703 -0.45664215 -0.22695419 0.47335216 0.57223725 0.2193528 -0.24443027 -0.11081664 -0.512132 0.46357247 -0.85587 0.0010217527 -0.07179484 0.15686007 0.74999374 0.28606963 0.3521972 0.2667554 -0.14209895 0.41286078 0.12716436 -0.21531425 0.8794586 -0.6371207 -0.27179235 -0.16663954 0.2014981 0.070267566 -0.24890319 0.10698658 0.32286468 0.30277747 -0.99119145 0.0714683 0.07562208 -0.47643647 -0.6120197 0.36545512 0.29171756 0.21766333 -0.26377875 0.28350407 0.2917422 0.31887162 -0.13407041 -0.39990014 -0.20246501 0.23253113 0.10344252 0.27248415 -0.5219082 0.19098514 0.15852098 0.042002678 -0.07752031 0.14448147 0.083426096 -0.17241272 -0.31847167 -0.0010325502 -0.19850345 -0.6619996 0.3982569 -0.24839935 -0.4042697 0.037090763 -0.14742346 -0.08550064 -0.15967047 -0.06276369 -0.118228555 0.1484261 -0.006872868 -0.35772642 0.538948 0.48069668 0.4595543 0.66472477 -0.29674694 -0.5996204 -0.6936226 0.020987311 0.25851747 -0.66698223 0.025145551 -0.12701838 -0.13576256 -0.19670989 0.29161927 -0.60728306 0.75457984 -0.63282865 -0.6827001 0.21427067 -0.07692762 0.40003213 0.6082354 0.37052822 -0.38036606
1644 0.21900468 0.51577306 -0.05486495 0.22654137 -0.6684203 0.29090762 -0.28830728 0.35663474 0.6547325 0.52979344 -0.18081805 -0.26332244 -0.20466138 0.027049785 0.039512604 -0.35876104 0.22007273 -0.35958302 0.27124363 -0.20114252 -0.41435078 0.47125247 -0.73787606 0.89176583 -0.27198806 -0.63006043 0.35540658 -0.011375541 0.42877865 -0.28645796 -0.21622823 -0.04879073 -0.2990207 -0.41452748 0.13270405 -0.1858217 -0.14161105 -0.05338266 0.21730055 -0.3003181 0.1560782 0.49861702 0.6316808 0.27697876 0.08220306 0.41666752 -0.21351822 -0.3938763 0.6735297 0.1369061 -0.05576594 0.030828059 -0.43661472 -0.58524346 0.060808044 -0.28063995 0.016608099 -0.061252866 0.22675487 -0.31546402 0.45474115 -0.20502515 0.14799531 -0.18303685 -0.37959322 -0.174182 0.7160597 0.172714 0.079944685 0.58364165 0.31673458 0.3054237 -0.41588506 -0.36256453 -0.27595106 0.3309146 0.19456063 0.2786807 -0.023493527 0.07837391 0.39156872 0.20543861 0.2957211 0.38287368 -0.30866846 0.44430143 -0.44218013 0.42056754 -0.5487187 0.013018588 0.64103 0.79519206 0.121350616 0.16905694 -0.057449415 0.37954077 -0.82107836 -1.0352173 0.38450775 0.46014944 -0.11799685 0.13187836 -0.3435081 -0.20818062 0.14131236 -0.40389475 0.9007113 -0.028816286 -0.13834177 -0.5712418 -0.65355015 0.20293418 -0.2978003 0.46045527 0.3377008 -0.361578 0.20258452 0.60405594 -0.14597887 -0.42567402 0.6123998 0.55473596 0.04711605 0.18751012 0.89535725 0.08676912 -0.48001045 0.43246147
635 -0.16770509 -0.08475001 -0.10825137 0.10442376 0.37844324 -0.07927997 0.33500335 0.7116478 0.039508205 -0.6055716 0.14862202 0.12559369 0.3036905 -0.50506073 -0.08882771 0.49604544 0.26191214 0.4328727 -0.5626506 -0.0032667578 -0.6963744 -0.09314537 -0.13423868 0.34087533 0.17950904 -0.44953302 -0.0037653905 0.0038785127 0.253013 -0.14791499 -0.011943619 0.84319544 0.35747224 0.23524322 0.36024746 -0.5043774 0.14793071 0.115851596 -0.07977318 -0.67158806 -0.45947534 -0.28877205 0.50387144 0.72082347 0.20052995 -0.4725271 0.9355887 -0.46261892 0.6060711 0.020736227 0.13280421 -0.1253357 -0.45306906 -0.6035184 -0.4441797 -0.041416362 -0.1726287 0.11502569 0.79209805 -0.20676191 0.1922003 0.09352869 0.26447988 0.035083704 -0.07770849 0.36603147 0.5072327 0.81422395 0.18686725 0.7289283 0.012731824 0.5594945 0.3401578 -0.27411494 0.39632463 -0.108262055 0.26231775 0.528656 0.048314296 -0.22964567 -0.25176567 0.2099286 0.4052473 -0.79698384 -0.41328043 0.07449056 0.34862474 -0.12590598 0.36059988 -0.5010006 0.11883993 0.84551924 -0.039494965 0.50535077 -0.40810862 0.61758345 -0.069203764 -0.15259027 -0.033037443 0.25053164 -0.41356236 0.49221277 -0.44201344 0.54485166 -0.7309171 0.06773811 1.0250299 -0.50034654 0.066734165 0.57744515 -0.25121585 -0.23849952 0.070657216 -0.1729531 0.8008943 -0.044619713 -0.31206742 -0.0015091031 -1.1281097 -0.114163235 -0.3995214 -0.39115468 0.109625734 0.49690828 -0.25038895 0.6140044 -0.20456308 0.3453797
14 0.6412483 0.39415 -0.43190926 0.09692526 0.55300814 -0.44409105 0.4267257 -0.08909024 -0.045581143 0.54913294 0.3617604 -0.7453708 0.6106271 0.4408845 0.51833934 -0.1335609 -0.19723967 0.020176526 0.099790886 -0.3786634 -0.86935705 0.75199825 -0.119581446 0.7479578 0.35368463 -0.026355388 -0.9237751 0.60704243 0.50119287 -0.16506706 -0.12189658 0.33487412 0.005609516 -0.10278131 0.41782025 -0.4722717 -0.8689197 0.32120994 -0.2896791 -0.5958179 1.0241671 0.17236127 -0.2934335 -0.06140061 -0.32211122 -0.9388909 -0.20407233 -0.9078862 -0.82994807 0.23229215 0.0067199166 0.8064843 0.15367493 -0.4350992 -0.29493627 -0.29555532 -0.2862945 -0.41994166 -0.937267 0.28542852 0.5395282 -0.5734214 -0.680841 -0.72859293 -0.49772623 -0.43136704 0.47814742 -0.020181783 0.03423475 -0.10726753 0.14143123 -0.40973836 0.05704398 -0.11829532 -0.059935093 -0.25893056 0.14821406 -0.6043984 0.1874553 0.20118344 0.14523384 0.17640483 -0.31736657 -0.501263 -0.28178212 0.1780201 0.6144496 0.22712997 -0.1800624 0.25863007 0.31032184 0.6673411 -0.05925013 0.36335605 -0.6419527 0.54092306 -0.56860286 -0.56135935 -0.094596356 0.050997965 0.47731268 -0.15492816 -0.38170415 0.7575625 0.2480066 0.839301 0.34852013 -0.8465282 -0.07948259 -0.1608162 -0.25746387 -1.5587994 0.028209133 -0.79107946 -0.19131577 0.007990587 -0.34353846 0.16752842 -0.11888215 -0.086942285 0.03983993 -0.467476 -0.4579813 0.39788297 0.18131247 -0.29595727 -0.06387564 -0.30413875
136 0.25231785 0.10513468 -0.36381277 -0.21325122 0.038653497 0.72297066 -0.28648412 -0.45586357 0.56116676 0.41902703 -1.0626705 -0.16216525 -0.40807316 0.1591646 0.21498609 0.4264728 0.5144724 -0.3697101 0.058597594 -0.20176435 -0.42115146 -0.07676147 -0.029372994 0.24555731 -0.112140335 -0.6695376 -0.06343105 0.61957484 0.47115007 -0.9640443 0.03607155 0.345507 0.09859069 0.61051667 -0.2056396 -0.5099384 -0.026996145 -0.23275392 0.18839015 -1.041183 0.03844206 0.33216166 0.22539443 0.34975967 0.28724948 -0.3695288 -0.69021213 0.45598024 -0.081042096 0.098068126 -0.16195326 -0.05254019 -0.6086759 -0.5174107 0.012449068 -0.3858816 -0.32558364 -0.6296466 0.62084633 -0.1436889 0.556813 0.3154441 0.23034464 0.036620043 -0.10587634 0.18334551 0.42001152 0.27785647 -0.123679794 0.2733834 -0.22509791 0.38501263 0.17024176 -0.52741784 -0.45504484 0.23308717 -0.082065985 -0.17757942 -0.0016981335 0.7179491 0.2938662 -0.17352141 0.05008712 -0.030509358 0.1816666 -0.49908823 -0.048274152 0.3056111 -0.152922 -0.19168164 -0.21179914 0.29151857 0.15891302 0.01957881 0.29251513 0.028504688 -1.2174418 -0.9851948 0.28165698 -0.26915374 -0.9399922 -0.3538142 -0.6552696 0.91994804 0.040834986 0.5375668 0.5917625 0.03199954 -0.40995225 -0.7374691 -0.067150444 0.1835008 -0.5080996 0.08733965 0.44985557 0.52889633 -0.036248457 -0.279795 -0.08383925 -0.9856981 -0.33479095 -0.3092119 -0.7814255 0.17073655 0.5143273 0.61530423 -0.22449394 0.15854351
1328 0.3974882 0.07504048 0.24419641 0.07058447 -0.7344833 0.041116655 -0.19136211 -0.36932838 0.6422269 0.55014664 -0.6348781 -0.08722098 0.15541632 0.57895064 -0.09030228 0.59518623 0.4765953 -0.42032096 0.3929383 -0.33473733 -0.06709071 0.66839325 -0.96950996 0.5551165 0.29368126 -0.72944546 0.14962046 0.13131166 0.16431758 0.56659806 -0.3667498 0.6362233 -0.23634031 -0.1737801 -0.1667132 0.15919037 0.29902506 -0.015426761 0.050547533 -0.8912737 0.40408742 0.064348854 0.45953515 0.9001328 -0.5360905 -0.27566198 -0.26114392 -0.63247204 0.15882924 -0.14180148 0.3052654 0.0906432 0.30496952 -1.10539 -0.59256095 0.19623615 -1.0459433 -0.036939662 0.27067748 -0.54581034 0.44310758 -0.12893616 0.11453632 -0.16578951 0.12827832 -0.17633533 0.8942433 0.08128214 0.22964062 0.34539416 0.6328411 0.95842695 -0.38602963 -0.10896976 -0.34353986 -0.27911925 -0.03338403 0.40249297 -0.23103157 -0.23851907 -0.09510553 0.35541654 0.682717 0.17633304 -0.31483105 0.21894129 -0.16224904 0.20812957 0.34628385 0.08418446 0.46825185 0.5426566 0.17596965 -0.042851504 -0.19181564 -0.25482243 0.09378351 -0.96609324 0.27360028 0.034141414 -0.28766245 0.1635042 -0.83178186 -0.33320552 0.15796363 -0.33519566 1.1392924 -0.4219681 -0.36910582 0.25137147 -0.15091369 -0.47067443 -0.27190647 0.013299985 0.16227362 -0.5247265 0.24456844 0.06444034 -0.48144957 -0.28770098 0.48315397 -0.22192556 -0.2763521 -0.38607857 -0.26219887 0.31323153 -0.7850194 0.68341804
910 -0.06942254 1.0058423 -0.28636235 -0.05761119 -0.60156393 0.29196197 -0.76760757 -0.15823351 0.5603266 0.48238668 -0.025432171 -0.253065 -0.26073027 -0.3933862 0.5361515 0.32545477 -0.3618661 0.087524794 0.17708077 -0.09600903 0.18325064 -0.12977749 0.66987336 -0.28752133 0.08768991 -0.40491122 0.3472288 0.022812106 0.3521955 -0.5243615 1.1694579 -0.18640831 1.0298378 0.2343378 -0.1393021 -0.26068044 0.2049303 0.58083546 -0.3114982 0.19335715 -0.02565705 -0.7937499 0.065653674 0.87422264 -0.2575801 -0.21693489 0.15342322 0.44773826 -0.2704491 0.20098266 0.36396006 0.5491827 0.0064211665 -0.03431485 -0.109875865 -0.0701321 0.124642335 -0.08903021 -0.15423718 -0.16303216 -0.1257087 -0.35870323 0.05677075 -0.21110247 -0.30857682 0.06035698 0.12992445 0.019391447 0.33459717 0.6291923 0.61919224 0.3059863 0.05519173 -0.4034024 -0.28389388 0.017470015 -0.2966865 -0.13783048 0.45608708 0.60165757 0.094762005 0.66297793 -0.12533723 0.057858605 0.29506034 -0.5347322 -0.45334572 -0.32179573 -0.373615 0.121254995 0.4581945 0.36495346 -0.15196219 -0.03968712 -0.2974867 -0.38888463 -0.13941662 -0.5691421 -0.1652507 0.4847128 0.43288067 0.2720688 -0.110613026 0.4155546 -0.701753 -0.1169983 0.2634635 -0.14150105 0.42886984 0.2099455 0.017703297 -0.024564136 -0.15762013 0.30378824 -0.31033477 0.18196887 -0.23120262 -0.27350527 -0.35007674 -0.19952378 0.29661545 -0.56840074 0.4413639 -0.5387027 -0.5014567 0.42926222 0.53129435 0.09166465
109 -0.06988974 0.030983122 0.42916837 -0.06675799 0.16299465 -0.2227806 -0.008715656 0.70000046 -0.035582613 -0.021345783 -0.2269672 0.19645973 0.4476971 0.5029102 -0.21531999 0.7068548 0.5795231 0.006684986 -0.54724056 0.34290007 -0.7306131 0.34353197 0.08732806 1.4537852 -0.14861012 -0.7526191 0.03095405 0.52708155 0.9249723 0.090039134 0.6614302 0.5148822 0.6210749 0.49247533 0.57797706 -0.013569547 0.03247269 -0.13537206 -0.09957868 -0.7337196 -0.3597048 -0.008319586 0.26535606 0.3692028 0.15853281 -0.024259856 0.49258807 0.09604567 0.26974848 0.18320021 -0.3005517 0.8241176 -0.3095805 -0.5270222 -0.0842094 -0.26476902 -0.091411345 -0.33111066 0.6472297 0.020992976 0.22546482 -0.5684403 0.09969186 0.04617787 -0.41246584 0.13562915 0.09405385 -0.070351444 0.35844618 0.060760934 -0.019624094 0.3909172 0.9492247 -0.38193387 -0.7073907 0.69622576 0.29843727 0.73104876 0.21366756 -0.17856757 -0.0884854 0.21273988 -0.22612078 -0.45538166 -0.08862392 0.013860682 -0.08375701 0.25712398 -0.022209847 -0.4002932 -0.057987552 0.76663494 -0.2604144 0.13566607 -0.25933456 0.021129375 0.30449557 -0.13929044 0.2210814 0.1084714 0.13812788 0.32178947 -0.32035846 1.1225674 -0.036542464 0.24476404 0.69576275 -0.57362825 0.100552924 -0.15012003 -0.2666919 -0.5333041 0.12958656 0.4734104 -0.17553109 -0.21490143 -0.6469183 0.3854624 -1.0706133 0.20570248 -0.16947098 0.121280015 0.11723119 0.5753061 0.19216983 0.6942939 -0.01676177 0.05470348
1240 0.68607223 -0.09961987 -0.64155436 0.8154104 -0.11649837 -0.22010088 -0.82277757 0.38566667 -0.23758465 0.6570517 0.042261712 -0.001315385 0.67412907 -0.5405726 0.5708174 -0.51196635 0.4886682 -0.22128563 0.31614864 0.17146096 0.52413386 -0.0304 0.1851972 0.07700469 0.6898941 0.17979802 -0.23754254 0.18075031 -0.06417922 0.40282243 0.29458332 0.48138827 0.61554897 0.39183304 0.3533737 0.076270975 0.40187335 0.47064298 -0.7314522 -0.6743746 -0.30761093 -0.33214375 0.92061496 0.40151522 0.1549795 0.21068619 0.52789515 0.34669948 0.5942037 -0.38762146 -0.45496967 0.26647794 -0.19370222 -0.076180525 0.43530527 -0.10669399 -0.679302 0.2977377 0.57702583 -0.041267123 0.42125165 -0.49019408 -0.5023487 0.216691 0.02080855 0.24511284 1.0249678 0.32256395 -0.045363504 -0.59739304 0.49840674 0.35756558 0.27544954 -0.6012219 0.5973774 -0.2747479 0.22152571 -0.30813712 0.088369064 0.0925262 0.53365326 -0.026455315 0.4704352 0.3016145 -0.91779137 -0.019104922 0.25071764 0.065354176 -0.35438246 -0.31776667 0.19675875 -0.5077027 0.4947332 0.48591232 0.027619084 0.05455207 -0.20866816 -0.5450983 -0.15592356 -0.26161632 0.07350907 0.5024289 -0.1574365 0.5923101 1.2586565 -0.20001857 -0.3673531 0.034335516 0.0029136883 -0.1643727 -0.035206407 -0.9978921 0.372884 0.14167982 -0.4227194 -0.07593789 0.008055974 0.35423753 -0.048552513 0.1871742 0.49280924 -0.588143 -0.3030541 -0.45210016 0.29747477 -0.37778708 -0.21364528 0.45393446
686 -0.04077419 0.15504532 0.07765792 -0.20167856 -0.3915701 0.137546 -0.29352784 0.5123547 0.55613333 -0.079175435 -0.31099093 -0.08224122 0.519999 -0.43777183 -0.41422606 0.394876 0.44102082 0.09952567 -0.65585226 0.07073481 -0.6852768 0.6161124 0.055218685 -0.3190727 0.20682366 -0.85209113 -0.015025626 -0.31013754 0.018201955 -0.47270256 -0.2730159 0.9294792 0.07717224 0.0001822398 0.5083287 -0.47377777 -0.0044727884 0.57094026 -0.1363642 -0.5882929 0.035996147 -0.5288569 0.39514574 0.40313601 -0.115645 0.19967517 0.3849682 -0.030538127 -0.16915907 0.14683251 0.14779039 -0.07378782 0.26281682 -0.69382 -0.47815996 0.04783196 -0.48136377 0.2714324 0.1408225 -0.569204 0.2280889 -0.14236908 0.3364642 0.44374216 -0.3212577 0.24011156 1.1182936 1.0243908 0.15914024 0.26545173 0.6508683 -0.18082845 0.21701247 0.08665999 0.59439874 0.17972608 0.21774185 0.5413792 -0.11609881 -0.1973106 -0.7120002 0.76828533 0.5975751 -0.8606741 0.2313403 0.2222883 -0.13410239 0.44490695 0.1561641 -0.08905758 0.7244454 0.71793264 -0.51643836 0.516147 0.08783248 0.08240575 -0.17948236 -0.30915773 0.09944756 -0.34013048 -0.61450934 0.039295316 -0.2663728 0.28864154 -0.5820245 0.5077559 0.70773524 -0.36331984 0.110534094 0.60741323 -0.54400223 0.18240394 -0.0049016057 0.13597706 0.71412593 -0.7164449 -0.67940956 -0.0948701 -0.3500397 -0.30640888 0.03817269 0.3387743 -0.035487305 -0.118649244 0.03697453 0.64086455 -0.25521275 -0.155859
1713 0.80379194 0.2790846 0.602869 0.5711309 -0.45749894 0.27796108 0.18041916 0.5816506 -0.12208781 -0.08134365 -0.0879655 -0.08265496 0.12620388 -0.12733601 0.29452652 0.0684335 0.08348012 0.20872377 -0.063518696 -0.5009603 -1.2639768 0.030443732 1.2650969 0.37062797 -0.97605014 -0.16048563 0.9136763 -0.7431174 0.63033974 0.020489922 0.2758587 -0.636072 0.5005657 -0.14267068 0.18771291 0.50119597 0.9844549 0.06914851 -0.10933016 -0.14177462 -0.52552515 -0.2820411 0.10476569 0.094444446 -0.09190446 -0.38063663 0.879977 0.72178626 0.07800167 0.08121684 -0.28060132 1.1242185 -0.3813555 -1.1576339 -1.5030941 -0.013691331 -0.10853067 -0.5549561 0.35695392 0.14900964 0.7905682 0.04088129 -0.058043458 -0.44419843 0.056374233 0.27131942 0.26988134 0.37344334 -0.013058351 0.19089514 -0.09278203 0.018547457 0.10863789 0.28582245 -0.40251854 0.074600086 0.30937225 -0.044984393 0.5570483 0.5347138 -0.050108362 0.6924339 0.1180277 -0.3631027 -0.06942981 0.043588176 0.26954412 0.27292463 -1.0864575 -0.11377094 0.043191478 0.03803033 0.1578568 -0.3674129 -0.24696784 -0.43748137 -0.424585 -0.26918584 0.34739983 -0.29690585 -0.059935786 0.68353295 -0.5484758 0.09494906 0.7628121 -0.025997424 0.57842755 -0.4655724 1.0728672 0.16690452 0.39593527 -0.24017416 0.32569113 -0.24793358 -0.23019028 -0.29233503 -0.10608948 0.49604023 0.097123794 -0.21847077 0.04208234 0.49956286 -0.00022306004 -0.7246543 -0.019623544 -0.6419893 -0.22869506 0.2898973
1520 0.5375369 -0.14832406 -0.8545075 0.40138856 -0.044365052 0.18621175 0.2722601 0.24529012 -0.38722885 -0.16512226 0.122477174 0.12853946 -0.38643605 -1.1709907 0.02647337 0.38251793 -0.30676857 0.059250202 -0.7851248 -0.53380483 -0.2892287 0.44773725 -0.2970371 0.07587367 -0.59743893 -0.7786647 -0.3868016 0.2938815 0.68198425 -0.51657057 -0.5315229 -0.2293908 0.3546734 -0.30275255 0.47587675 -1.1912142 0.3034113 0.364429 -0.66937596 0.082004055 -0.19118446 -0.723313 -0.35055885 0.16495891 0.85669744 -0.24064654 0.33127683 0.015205618 0.822079 0.047996964 0.6427017 0.14997736 -0.06510391 -0.39685258 0.011731442 -0.0915444 -0.6712191 -0.034484565 -0.3416266 0.20235963 0.019685987 0.6169756 0.38380036 0.7287842 -0.5793874 -0.18394528 -0.17643553 -0.4546409 -0.15472971 0.09302897 0.4536053 -0.28813878 0.014710077 -0.13139248 -1.1567194 0.37184483 0.7905595 -0.673621 -0.16678649 -0.43246812 0.100551575 0.83793426 -0.63478297 -0.068185456 -0.4104381 0.17329285 -0.1265713 1.1107312 -1.6794477 -0.18886782 0.04862622 0.062131613 -0.15079148 0.17126994 -0.4438958 0.20874143 -0.17085811 -0.6610415 0.7371995 0.078966364 -0.27981976 -0.61253995 -0.7185483 0.33617556 0.42595044 -0.4724811 0.3039781 -0.87534916 0.04355023 -0.5363447 -0.22438481 -0.9378565 -0.61104596 0.1987021 -0.1261801 0.29768685 -0.29924968 -0.1923141 0.2462976 -0.17572978 0.10966149 -0.4358158 -0.1958086 -0.53639036 -0.39601403 0.41766107 0.45336998 0.49690914
41 0.009467685 0.19715321 0.48739898 0.536441 -0.73804575 0.22921972 -0.17793164 0.6276881 0.49635416 -0.29527867 -0.31445295 -0.36632702 0.082201794 -0.6415586 0.11420087 0.19316931 -0.042206306 0.11150837 -0.5469844 -0.4051867 -0.5544451 0.015760962 1.0819169 0.24578281 -0.87290484 -0.8258858 1.0919467 -0.15785192 0.49488595 0.2611006 0.304721 -0.7485376 -0.095416695 -0.12280162 -0.078316316 0.98566556 0.42413875 0.41080567 -0.0165244 0.6206502 -0.40389916 0.1059197 0.031184508 0.43841648 -0.38941634 -0.53437555 0.673152 -0.065078825 -0.19233814 0.24820687 -0.25880075 0.41394097 0.3840868 -0.9933003 -1.7732693 -0.22314988 -0.376239 -0.38496622 0.20237261 0.006323584 0.5588185 0.42938727 -0.1323851 -0.70631593 -0.2957561 0.70727384 0.33602577 0.47036603 0.16963387 0.05767771 -0.32011774 -0.1374533 -0.018471844 -0.19703746 -0.40666327 -0.0134943435 0.19419871 0.087375954 0.43823346 0.35342467 0.1350923 0.97254807 0.016386708 -0.052868746 -0.33049837 0.21159369 0.23712857 0.44362915 -1.2695584 -0.4147908 0.0076482953 -0.30572507 0.3431828 -0.061698027 -0.11338962 -0.65281045 -0.18201752 -0.65228146 0.21615446 -0.2943937 0.14306062 0.5969668 -0.45378214 0.0993103 0.6786984 -0.4120118 0.83897924 -0.28278056 1.0381279 0.06110937 -0.04505686 -0.9961225 0.36971453 -0.14730355 0.2911326 -0.012914887 -0.10002677 -0.02718815 -0.05367651 -0.60313404 0.0926195 0.24295627 -0.28895572 -0.48743066 0.119132824 -0.6154037 -0.13317932 0.55898345
1290 0.11512563 0.116727024 -0.18310428 -0.028997838 -0.5256961 0.42952463 -0.38284257 0.451488 0.18369526 0.13074297 -0.7226851 -0.25412044 0.17299616 -0.28760827 0.33650693 -0.07782144 0.06933613 0.039870784 0.227465 -0.8243305 -0.44018993 0.63293415 -0.23076852 0.84984785 -0.09082605 -1.194157 -0.25499636 0.28128532 0.24862917 -0.25021315 0.43035415 -0.04170112 0.16511483 0.07556102 0.5295171 0.07736155 -0.074975245 -0.27846733 0.06966793 -0.93468493 -0.6251301 0.28686905 0.20062524 0.11580255 0.13357206 -0.28900284 -0.032510635 -0.3657355 0.2430451 0.21552736 0.384927 0.6286343 -0.27022177 -0.33328655 0.17617056 -0.1737889 -0.15717793 -0.026340812 0.41868585 0.12102258 0.48677042 -0.082864694 -0.36600387 -0.5063092 0.13799575 -0.22546783 0.23089688 -0.1479698 0.7365999 -0.33840477 0.387644 -0.24536327 -0.36502388 -0.7577912 -0.55825925 -0.17317061 -0.44679263 0.08876262 0.55901784 0.27767754 -0.09076287 0.18984704 1.1145046 0.4472682 0.053766277 -0.090771474 0.059024572 -0.11988605 -0.4422098 0.19636528 0.0133351805 1.2282759 -0.3096655 0.5181996 0.0024482603 0.81442446 -0.82523793 -0.59633565 -0.26412237 -0.3812086 0.17892103 0.15310834 -0.529357 -0.16074339 0.5376746 0.07198041 -0.054833952 0.2189066 0.27563682 0.267101 -0.48406827 0.336494 -0.4121466 0.28041798 0.23722346 -0.24257776 1.0396129 0.383693 0.33242047 -0.16723531 0.741852 0.27250475 0.20229732 -0.2571864 0.46634907 -0.40461862 -0.80907625 -0.11870539
570 0.23307964 -0.20738228 -0.67469674 0.56347364 -0.1371345 0.5782676 0.17546736 -0.03444473 -0.3304163 -0.2485374 0.18650699 -0.066470385 -0.68097985 -1.1001657 0.2162416 0.3376557 -0.17569883 0.09478695 -0.42198294 -0.39347056 -0.19080748 0.7816907 -0.34427947 0.28298366 -0.6283131 -0.7971651 -0.7800189 0.83412087 0.19122928 -0.23360166 -0.457522 -0.29507235 0.4066489 0.32855225 0.50567585 -1.5610701 -0.013314106 0.36548787 -0.40421197 0.14478485 -0.049364075 -0.7083221 -0.34775487 0.180656 1.0205963 0.13624313 0.17646618 0.030557478 0.7833145 -0.38912117 1.109924 0.45465815 0.23707455 -0.5463435 -0.16628084 -0.47702387 -0.91909814 -0.43539765 -0.11235082 0.05436025 -0.31423253 0.3878494 0.14406043 0.4602682 -0.7019954 -0.015486523 0.094853796 0.08244625 -0.320947 0.015144576 0.32453892 -0.09963897 -0.13692078 -0.19606428 -1.3120749 0.19857207 0.61233974 -0.60776526 0.21691929 -0.16421364 -0.04890998 0.3917452 -0.21347377 -0.4072962 -0.25356933 0.20604417 -0.32115784 0.75953037 -1.3172148 -0.031682145 -0.33677414 0.09213346 -0.10296395 0.15732743 -0.36354813 -0.046726152 0.045650225 -0.43732336 0.8132986 0.034693535 -0.47719273 -0.23063007 -0.5506385 0.39154994 0.5397587 -0.4954477 0.29092318 -0.657687 -0.09145174 -0.28248617 0.08773317 -0.64396405 -0.6700481 0.33257645 -0.22987287 0.016705751 -0.5818095 -0.14060126 -0.045809913 -0.49224088 0.54032016 -0.16279308 0.08907366 -0.53091335 -0.43179363 0.5248882 0.19050312 0.4327508
569 -0.10263262 -0.5154613 0.6946642 -0.31788087 -0.25658104 -0.12618501 0.19056319 0.4068942 0.17288108 -0.030778456 -0.34891546 -0.655382 -0.4444857 -0.13919576 -0.36909747 -0.4868717 -0.12053385 0.4952046 -0.6110824 -0.010334956 -0.56295335 0.26807806 -0.428004 1.0259973 -0.30302453 -0.58618414 -0.53448457 0.29987928 -0.24284759 0.10166754 -0.005525729 0.012154332 0.37266105 -0.38132173 0.67690986 -0.034985516 0.30277857 -0.30723462 -0.51014507 -0.84882367 0.23153907 -0.93692154 -0.10694855 0.014510728 0.39774916 0.5304978 -0.028318241 -0.32645723 -0.4112035 0.3525055 -0.27484062 0.07666615 0.22639166 -0.8385716 -1.1478696 -0.08243984 -0.5291014 -0.015858917 0.01617915 -0.19276549 0.49936578 -0.40163988 0.45192027 0.07141153 -0.14328302 -0.57538325 0.34481773 -0.37017155 0.18828823 -0.54522336 0.118410826 0.012156828 -0.5557076 -1.0575161 0.36382708 -0.52125996 0.281366 0.15181205 0.8553431 0.065311246 -0.2635901 0.31555027 0.6178243 -0.54887706 -0.0665309 0.1574071 -0.57100576 0.39259213 -1.01503 -0.5144611 -0.28718314 0.5768284 0.11723398 0.66800886 -0.45996344 0.14980957 -0.48850265 0.21129805 -0.32139376 -0.14265041 0.5571017 0.26743186 -0.43560392 0.46585414 -0.06273557 0.0202211 0.13536946 -0.062674016 -0.37038723 -0.14032915 -0.5889473 -0.30429295 -0.2633128 0.64956254 0.12342304 -0.109252974 0.44309488 0.18883985 -0.12872316 -0.2285512 0.48321348 -0.013065243 0.024791505 0.13333084 0.19288583 0.27592918 -0.10673885 -0.07843649
478 -0.043264598 0.76266736 -0.24200772 0.5368741 0.21287882 0.06733202 -0.233613 0.3843929 -0.12024742 0.17143717 -0.61129695 -0.24962173 0.7276228 -0.35703304 0.30886078 -0.26042154 0.37213558 0.08386224 0.3218541 -0.6242488 -0.22863513 -0.35361323 -0.20748095 0.0710318 -0.036313154 -0.757168 -0.069495924 0.7312401 0.29891637 -0.302324 -0.3344307 0.36975184 0.5764838 0.91241914 -0.3033266 -0.025618378 0.33711764 -0.100424945 0.28913006 -0.5940441 0.18291661 -0.44472307 -0.09013292 0.62012863 -0.7370884 -0.6167885 -0.7201944 -0.016500443 0.11338003 -0.2755081 0.47788003 -0.42830762 -0.67762935 0.05529508 -0.30318493 -0.6007751 0.0145133445 -0.17828107 0.3655733 -0.5825401 0.45724636 -0.17486306 -0.15979902 0.04647924 0.28798056 0.0373789 0.31618753 0.30887875 0.22032905 0.1958813 0.66594434 -0.34552866 0.5633244 0.0117377 0.21716842 0.1541297 -0.9992889 -0.17174114 -0.058511477 0.10453938 -0.22427925 0.6246663 0.6289662 -0.1793259 0.5504554 -0.30180052 -0.46076968 0.36287892 -0.29342547 0.16678005 -0.3143836 0.05058741 -0.05279646 0.32818148 0.020295778 0.09413689 -0.554956 -0.5102827 -0.20882308 -0.2490278 0.46214938 -0.17001681 -0.64334804 0.51646537 0.28354013 0.24765486 -0.23042306 -0.71184915 0.42658317 -0.4627234 -0.14854416 0.6126032 -0.10025947 0.5372295 -0.030749448 0.6801689 0.4078131 -0.75465643 -0.38542783 -0.13591073 0.034961212 0.50393707 -0.048016332 -0.011515002 -0.3905188 0.09594009 -0.24160156 0.4559389
1527 0.7420314 -0.19825478 -0.26159978 0.6930688 -0.56896615 -0.27444306 -0.2568151 -0.0048674014 0.05926766 0.32329443 0.069358915 -0.3480125 0.593309 -0.9032572 0.3417313 -0.21105556 0.18398947 -0.3204762 0.71992326 0.321855 0.024340816 -0.23655 0.4128519 0.45505437 0.5151598 0.001328794 -0.50393677 0.15623286 0.06526949 -0.23767702 0.58056694 1.1183326 0.22052129 1.1661743 0.051425755 0.19373554 0.13276383 -0.31481597 -0.44447723 -0.29688093 -0.3269254 -0.34401146 0.43236744 0.19129388 -0.2592584 -0.3421549 0.11801408 -0.4110949 0.5265417 0.5150879 -0.10105199 0.22107555 -0.33955795 -0.74111533 0.18757305 0.12947156 -0.978275 0.16820136 0.4851281 -0.16580261 -0.29615253 -0.7591361 0.007223446 0.20507392 -0.19528607 0.46300185 0.5057433 0.040421292 -0.0097604105 -0.25299466 0.69494325 0.20390071 0.6890017 -0.5488811 0.23675366 -0.33745903 0.5239198 -0.23996513 0.10762099 0.17727418 0.53538454 0.5269166 0.92600214 0.49326646 -0.20622705 -0.010608624 0.25334412 -0.15742722 -0.07622932 -0.58030725 -0.45992333 -0.7082822 0.36775666 0.3768784 -0.076869056 0.31865817 -0.9288022 0.27865338 0.110509105 -0.24776976 -0.32866198 -0.02307295 -0.0813137 0.56939083 0.45224974 -0.3500603 0.07700099 -0.40144953 -0.49030963 0.10748542 0.23765768 -0.44379628 0.2044174 0.5217417 -0.6022813 -0.051620863 -0.0507877 0.95416695 0.02432297 0.36187246 0.7339567 -0.11515028 0.036345553 -0.55697787 -0.021126127 -0.76099443 0.14905319 0.3463771
1136 0.3658403 0.4383985 -0.30875444 0.17467383 0.05814728 0.22631317 0.073325075 -0.24335238 -0.37328276 0.30961186 0.14057185 -0.4602419 0.33444625 -0.03757259 -0.085455135 -0.14942591 0.5883359 -0.0066590523 -0.5110762 0.56605244 -0.3092067 -0.24555121 -0.088735096 -0.20607135 0.3921147 -0.1736176 0.25902575 0.039158024 -0.02429923 -0.19921601 0.4249396 -0.41394782 0.6378847 -0.51366323 0.45476177 -0.19702487 0.060907837 -0.5054342 -1.0272405 0.26349288 -0.63152725 -0.394497 0.502408 0.94065636 0.24889244 -0.09952154 -0.2430781 -0.14776227 -0.3385862 0.37631992 0.93202215 0.8171827 0.25775704 -0.4365507 -0.57807696 -0.3421137 -0.025288694 -0.44976202 0.026116 -0.13455677 -0.37902206 -0.3671 0.53325087 -0.6128213 -0.11502969 0.48253635 0.012094075 -0.24806145 0.12860417 0.4277553 0.5043042 0.57572156 -0.45116287 0.60100657 -0.34017035 -0.34809983 -0.013494363 -0.6473753 0.2742465 -0.0065487316 -0.17873195 0.83534884 0.061089735 -0.05143506 -0.07914176 -0.115127996 -0.31923658 0.048066992 -0.37588143 0.02130165 -0.07450506 0.16924317 0.18324777 0.6508714 -0.7570716 0.1272643 -0.38815925 -0.72957754 -0.16218777 -0.15145835 0.085166715 -0.19355513 -0.4752346 0.94287777 -0.86727303 -0.31550527 0.5229192 -0.360319 -0.08005354 0.5977155 0.083174765 0.27453366 0.11971031 -0.6317123 0.24941987 -0.29618758 0.13969292 0.88581944 0.5353201 -0.08295952 0.13299613 -0.62018216 0.031913042 0.008739241 0.27578062 0.42899436 0.17247307 0.3372795
2499 0.6218302 -0.6696026 -0.5096607 1.1040608 0.292112 0.31114087 0.40301988 0.35610846 -0.0058756163 0.28619325 -0.045138963 0.16088454 0.5180631 0.12512568 -0.12142573 0.10605219 0.14654128 -0.13854621 -0.39114106 -0.18350495 -0.1307355 0.17232923 0.8441176 -0.015910873 -0.77035725 -0.32586187 -0.5150924 0.025812041 -0.2723177 -0.24554472 -0.9074716 0.16578577 0.66075695 0.058764998 -0.19755813 -0.30250156 0.79323965 -0.5150671 -0.62051916 0.52178645 0.090551324 0.026806498 0.002636746 0.015873719 0.040385693 -0.25715998 0.82561433 -0.044200815 -0.32360333 0.71026015 0.50575197 1.1457256 0.54257447 0.036355495 -0.6687825 0.10513274 -0.8585234 0.12167953 0.22117116 -0.0007888748 0.09433569 -0.529778 0.3307757 -0.023984076 -0.22146519 -0.47172552 0.14701606 -0.2991592 -0.42411742 0.053475693 -0.026988603 0.7216914 0.34904072 -0.40945446 0.23133777 -0.41788316 0.59876275 -1.0073829 -0.4999379 0.9141719 -0.38236618 0.2666726 0.58307076 -0.8987447 0.5667908 0.1009439 0.4891478 0.44024667 -0.19410187 -0.37571022 -0.59650844 0.057389252 -0.031857997 0.40083054 -1.1160846 -0.59069437 -0.1835625 -0.27282625 0.2043222 -0.14287272 -0.5160085 0.24383074 -1.2692676 0.10258522 0.43464056 -0.12218557 0.31875366 -0.46338043 -0.002874287 -0.029442532 -0.029721927 -0.9255048 -0.086119674 0.52597696 0.5327191 0.06187389 -0.34303153 -0.33908007 0.4718949 0.27752164 0.7831195 -0.0093398485 -0.40696242 -0.51864034 -0.08381764 -0.1081591 0.08863493 1.0139126
1569 -0.03836568 0.3036233 -0.43639612 0.58322537 0.121422715 0.31027585 0.02686222 1.1943434 -0.024381222 -0.39318028 -0.69088805 -0.37673444 0.35962597 -0.5525263 -0.85871387 1.1069229 0.9497598 -0.018539438 -0.016460331 -0.6340115 -0.31757885 -0.16781384 0.17932771 -0.49557847 -0.077604406 -0.25466144 -0.60317224 0.27606213 0.8552501 -0.6932005 -0.10355391 0.37989214 -0.0072975066 -0.29051727 0.09705933 -0.35350865 -0.16111718 0.04712649 -0.18409319 -0.85674214 -0.20733586 0.12254222 0.22284779 0.23830242 0.1301608 0.21545272 0.9778215 -0.35506624 0.3270792 0.46646994 -0.1794569 0.43969113 0.11366064 -0.15564172 -0.14534177 0.5407444 -0.36908063 0.3716408 -0.10140622 0.16877052 0.29625276 0.7964095 0.3068774 0.050616954 -0.6346347 0.2002869 1.0549735 0.9802833 0.29997638 0.20260254 -0.47855207 0.6788348 0.40201643 -0.17755905 0.6125303 -0.50242805 -0.14753285 0.027709933 0.50395024 0.4119899 0.1705223 0.64697427 0.109859854 0.13552253 0.29856682 0.3411245 1.1567901 0.3778006 -0.5959426 -0.30094278 -0.3751082 0.5685073 0.027678788 1.269403 -0.11350311 0.03647798 0.048322253 -0.48612478 -0.21857506 -0.04407302 0.18730135 0.0101439 -0.68938947 0.584095 0.47213918 0.053033203 0.27465564 -0.94419175 -0.7019436 -0.31928664 -0.22013184 0.14556211 0.117896385 -0.30565843 0.88106203 -0.5220881 0.67866105 -0.31575772 -0.047652077 -0.62089366 0.01649598 -0.17368513 -0.56640923 0.20449753 -0.29678157 0.3452069 -0.24805759 0.45982608
1178 -0.14161026 0.16350538 -1.0015312 0.040316205 -0.19302492 -0.021394221 -0.4639056 0.24623987 -0.64137906 0.5066237 -0.27155834 0.09487508 0.09993471 0.26141542 -0.4264701 0.285791 0.78628993 0.07903984 0.21659695 0.42454273 -0.24271274 -0.45972484 0.8582946 -0.2156666 -0.14358339 0.2651222 -0.17199603 -0.2536867 -0.60655725 -0.84084934 0.41606706 0.034622133 -0.25968978 0.42204747 0.5401011 -0.39490154 -0.1744225 0.055702817 -0.32659855 -0.35225898 0.08965283 -0.9073816 0.085525304 0.999684 0.27218628 -0.20721 -0.28297046 -0.48529166 -0.00462522 0.07138285 0.7039218 0.25976118 -0.025983471 0.26812667 0.15909396 -0.50527614 -0.0839711 -0.48209065 0.38166872 0.36915335 0.48325327 -0.6149504 0.61010766 0.20006308 -0.34959793 0.1353168 0.7138051 0.46183518 -0.045385998 0.21750014 -0.07721169 0.25205395 0.29366633 -0.05819617 -0.09540948 0.28450295 -0.7047438 0.033270635 0.17038703 0.42818192 -0.5422356 0.51432765 0.36370668 -0.7206173 -0.33899492 -0.31034404 -0.30659685 -0.12790714 -0.33879417 -0.3600897 -0.13070014 -0.15868093 0.03998339 0.18711025 -0.5950178 0.26715913 -0.35703042 0.019392746 0.4840859 0.3999971 0.37076586 0.045027077 -0.7836786 1.0923572 -0.30916056 0.35158932 0.15081613 0.064511865 -0.27074692 0.29130608 0.31985518 -0.38462418 -0.24519426 0.11377286 -0.28171015 -0.60494787 -0.13248302 0.84767365 0.4605105 -0.4317129 -0.18297099 0.017239492 -0.2818958 -0.39935645 0.2646456 -0.0631366 0.6268291 0.43379945
1153 0.15160549 0.902863 -0.45637012 0.17526713 0.88231415 -0.23022169 -0.33813742 -0.36574844 -0.061763294 0.38214472 0.18336934 -0.4202811 0.31122342 -0.15984398 -0.042921204 -0.0706439 0.20253305 0.7883536 -0.38671952 -0.13098225 -0.34851444 -0.2751653 -0.22051919 -0.08515335 0.29778552 -0.6635161 0.31020814 -0.4476049 -0.24749063 -0.8169591 0.37516543 0.22423005 0.12654948 0.24237849 0.09584463 -0.44272617 0.60887486 0.35594332 -0.028040769 -0.09621075 -0.46820453 -1.0970516 0.24411015 0.59564257 -0.3754552 -0.29397848 -0.35063708 -0.30887803 0.13981411 0.8361292 0.47237337 0.6718161 1.0374627 0.039406322 -0.44337794 -0.025257973 -0.31196502 -0.45691374 0.06906344 0.41348985 -0.17805505 -0.35582945 0.3210349 -0.1471875 -0.33828625 0.3101983 -0.346609 -0.12557417 0.11000307 0.2958585 0.5792971 -0.41184485 -0.12646134 0.2829968 -0.29339334 0.08040066 -0.13564317 -0.2823587 0.16574353 -0.16438767 -0.4756376 0.5625205 -0.037606917 0.19825394 0.11723733 -0.20382164 -0.17629236 0.48077098 -0.09991643 -0.115666434 0.6370841 -0.6165404 -0.06737529 0.32704273 -0.85563666 0.3069476 0.33737358 -0.32549745 0.17147371 0.26297224 0.88799566 0.07562488 -0.86952055 0.86641115 0.06496653 0.0907099 -0.038051404 -0.3556259 -0.7663577 0.49955824 -0.189225 0.26842803 -0.80268085 -0.4168854 0.032327753 -0.6635942 0.49350637 0.69903934 0.39933103 -0.31521374 0.7368387 -0.08032541 -0.19681196 -0.17607051 0.32239524 0.15222898 0.44629064 0.21784814
66 0.53198075 0.363184 -0.1719251 0.49011764 -0.1862197 0.5079091 0.36956403 0.07325562 -0.34835196 -0.34901863 -0.7689303 -0.47608137 0.73640525 -0.780949 1.2171704 -0.43168554 -0.21430373 -0.41383514 -0.66496885 -0.2329112 -0.02331096 -0.3358481 -0.19564143 -0.3550042 0.6805088 -0.4135364 -0.2244418 0.33882377 -0.20660646 -0.53765625 0.05109844 0.5029566 4.9439615e-05 0.36699408 -0.7079785 -0.030390542 0.2224889 0.29651245 -0.35608065 0.07615535 0.093789905 0.7323772 0.485125 0.37487504 -0.8766024 -0.24172562 -0.1489101 0.0536668 -0.024606843 -0.5870383 0.31786105 0.3115557 -0.19514677 -0.3134883 -0.80176675 -1.1260011 -0.65116704 -0.4792749 -0.02152457 -0.21999934 -0.15253256 -0.7901554 0.28187588 -0.42995402 0.007966209 0.2508152 1.055204 0.5279908 -0.013162334 0.37189296 0.529764 -0.4686331 0.09620975 0.14012557 -0.13621339 -0.5240588 0.15679073 0.5412972 0.44325787 -0.20094694 -0.738073 0.18157019 -0.28325972 -0.50368947 -0.032272317 0.580387 0.020889891 -0.20392495 -0.11045999 0.3831643 0.32842344 -0.17543073 -0.058344804 0.269705 -0.1737484 -0.08770423 -0.66147 -0.35846496 -0.21078879 -0.056473643 -0.67068785 0.686966 0.23094374 0.6683516 0.4193832 0.06908637 0.78693587 -0.51354325 0.08778546 0.19811194 -0.7462853 -0.025915163 -0.25295585 0.84745586 -0.38475436 0.15526746 -0.40540692 -0.10676685 -0.90911406 -0.61479825 0.21097435 0.15099733 0.15294567 -0.16915548 -0.47445878 0.52563745 0.3625888 -0.22658175
250 0.50828767 -0.021970483 -0.30865294 -0.02711745 0.3680456 -0.35021815 -0.2816832 0.32864317 0.0348938 0.8248198 -0.38987857 -0.6024898 0.32474506 -0.3382777 0.72042525 -0.16990511 -0.20335598 -0.27252936 0.1705073 0.20087643 0.1058886 1.1508778 0.30057096 0.49534863 0.007824538 0.120512776 -0.11517624 0.22887766 0.40719226 -0.23926106 0.23345865 -0.267977 0.28741166 -0.04853991 0.1066419 -0.37893087 -0.53175926 -0.11935212 -0.3030343 -0.8187214 0.5701431 -0.12341358 -0.26265493 -0.23257716 0.53569096 0.047499724 0.84583265 -0.48363337 0.28282326 0.30651122 0.48738015 0.88808215 0.084850565 -0.4775477 -0.23974375 0.055519637 -0.35742822 -0.08968094 -0.61518925 0.6393642 -0.03719288 0.219663 -0.2963025 -0.40058967 0.44062325 0.04402314 0.9463308 0.23506443 -0.43241802 4.7711957e-05 0.19683385 0.036709968 0.23193751 0.16107242 0.29222375 0.1937585 -0.46331468 -0.87898564 -0.72977746 -0.19026557 0.39029145 0.27215692 -0.13291495 -0.4697322 -0.23805772 0.3510843 0.6134225 0.7408746 -0.26817626 0.3004175 -0.4646118 0.31828603 0.21785036 0.25876257 0.17428222 0.378348 0.2056975 -0.1885021 0.2154865 0.11251931 0.18887888 -0.11800926 -0.6510064 0.049299404 0.13754474 0.8331584 -0.49511832 -0.73703617 0.52064425 0.20522307 -0.24188048 -1.1815656 -0.5421193 -0.48689088 -0.79125744 -0.21233916 -0.14457895 0.074917056 -0.22645107 0.15722957 0.48824996 0.102457374 -0.13580468 0.050358403 -0.18594398 0.30578038 0.5684409 -0.52669865
188 -0.49991104 0.41728753 -0.9057582 0.20922846 0.08751909 0.4431251 0.056823887 -0.04226598 -0.44442886 0.29921168 -0.03838191 -0.31365836 0.3068352 0.11306558 -0.091176204 -0.5542478 0.13928296 0.3263515 -0.14069419 0.9491931 -0.22438745 -0.22896422 0.40562683 -0.0015759728 0.14371006 -0.86867446 0.020359661 -0.0033485878 0.03743381 -0.012070842 0.75975394 0.36759138 0.09696611 -0.22580768 0.26010257 -0.91731274 0.15592805 -0.07201063 0.47058237 0.01233815 -0.41116032 -1.2015969 -0.015572782 0.48624462 -0.54038507 0.47496065 -0.08847459 -0.96230185 0.0030993787 0.26965407 0.20513058 -0.04194779 -0.61440414 -0.107316375 -0.8607596 -0.41438118 -0.60656154 -0.33038226 0.14168982 -0.1653414 -0.41157684 -0.2477626 0.37124553 -0.114821516 -0.3980118 -0.25321326 0.14076275 -0.025993966 0.23568267 0.016352244 0.4047622 0.68772763 -0.20602836 0.3110892 0.18683377 0.8016163 0.050615825 -0.28238782 -0.31726208 0.42258584 -0.2379486 0.76857114 -0.19406813 -0.37593806 0.19887121 -0.17169105 -0.55417466 0.3443893 0.023049606 -0.38911617 0.27074373 0.001942873 -0.19964267 0.35514462 -0.29350415 -0.40217438 0.09503634 -0.37164694 0.012868755 -0.04822397 0.33857945 -0.42423034 -0.15645336 0.6125384 -0.3288419 0.12820932 0.20414996 0.06590085 0.11519754 0.21069123 0.006145196 -0.09951269 -0.704742 0.030220706 -0.10796776 -0.31598094 0.17179959 0.19090116 0.2672342 -0.586687 0.31005165 -0.7259768 0.12913527 -0.011228002 0.30806118 -0.103950284 0.47896063 -0.048942186
2175 0.054277115 0.38442394 -0.54905045 -0.44132507 -0.5120285 -0.396843 -0.43844604 -0.22646978 -0.652145 0.34229445 -0.2975584 0.0044781733 0.18049033 0.24508108 0.44728178 0.21241675 0.56505066 0.31813028 -0.23501155 1.1149315 -0.018953493 -0.15544996 0.59893537 0.22752675 0.7802594 -0.90138984 0.50870854 -0.22858074 0.22811404 -0.6760106 0.20306537 0.056207363 0.17711782 -0.25483993 0.005158603 -0.81190056 -0.045367666 -0.36172152 0.13968034 -0.030249992 -0.20749754 -0.85016745 0.08483546 0.57707506 -0.2540375 -0.43251064 0.19038083 -0.69478947 -0.06216254 0.17268606 0.008378489 -0.005327548 0.31712946 0.3212981 -0.30251342 0.22202046 -0.9196109 -0.39289078 0.30075622 0.42388952 0.4831027 -0.0017999711 0.6343832 0.2069551 -0.012016683 -0.061087254 0.42891908 0.1619673 0.41202903 0.21897717 0.14071341 0.6311137 0.48495036 -0.5134238 -0.09276941 0.32045016 0.10427439 -0.27139518 0.0032776732 0.04124089 -0.5621626 0.31325793 -0.33096915 0.10144205 -0.19788161 -0.22248578 -0.3783317 -0.15234867 -0.19316211 -0.26762885 0.42443907 -0.11417705 0.16979754 0.308889 -0.6635736 -0.5048948 0.29154497 -0.38779163 -0.27187344 0.20154658 0.608179 -0.3836752 -0.5151364 0.371492 0.41512865 0.09477114 0.64888203 0.37686422 -0.032181066 0.2030415 0.4409738 0.014101411 -0.41232485 -0.32091272 0.5014813 -0.5160386 0.086067766 0.7042511 0.08490111 -0.11238108 0.5224278 -0.17859304 -0.30352727 -0.74363744 0.3150976 0.101506904 0.85387975 -0.053065937
76 -0.31659696 -0.058764562 -0.42725745 0.040899247 0.36290833 -0.23018672 -0.17037058 0.6015711 0.31798404 0.026105894 -0.3077321 -1.0010172 0.76477736 -0.5980558 1.0593199 -0.0467473 -0.5520707 -0.1723228 -0.12632097 0.30237556 0.28375474 1.055001 0.23279043 0.77405536 0.10357536 0.48303387 -0.16578405 0.12025759 0.37457043 -0.051200174 0.82855445 -0.82704514 0.20407975 0.20810927 0.60816157 -0.45018426 0.059170708 0.17067668 0.045227215 -0.6000779 0.098159395 -0.4664301 0.16914688 0.26233858 -0.0042501306 0.23860545 0.97080004 -0.64439905 0.1351695 0.54821396 -0.25026783 1.0666926 -0.15954632 -0.04976673 0.27775884 0.43130636 -0.54804564 0.2734926 0.10629029 0.21155268 0.15282005 -0.32970446 0.20840715 -0.44823733 0.08063491 0.154211 0.96509224 -0.031254165 0.04855175 0.15119183 -0.045898646 0.6443616 -0.5005665 0.03380966 0.033728905 -0.3315284 -0.17236836 -0.8206892 -0.7026603 -0.66215354 -0.4652166 -0.18158768 0.07244438 -0.76603955 -0.38693115 -0.08312178 0.17365427 0.25326496 -0.1388977 0.28263927 -0.96263516 0.14775842 -0.30748037 0.41974396 -0.08546447 0.5963787 -0.08409409 -0.59896076 0.8094187 -0.01842951 0.39593646 0.20101422 -0.66356266 -0.1462871 0.5149764 0.1614301 0.006903151 0.22324046 0.277892 0.33847317 -0.27270633 -1.0685953 0.0010315928 -0.712668 0.48655784 0.32687443 -0.079574205 0.10991662 0.019252444 -0.61452407 0.41890606 0.16850413 0.711807 -0.43028507 -0.209337 -0.2477162 0.2750072 -0.26566073
2153 1.2589563 0.39999163 0.16186965 0.3108133 -0.57043445 0.39829183 0.47731766 0.45173165 -0.374391 0.19350739 0.26628467 -0.18610829 0.011087987 -0.007805189 0.21943042 0.60486394 -0.066023715 0.21560733 -0.17808157 -0.18069017 -1.0252008 0.12066327 1.1051176 0.42388383 -0.90784234 -0.034699485 1.0740087 -0.98681533 0.609127 0.10562997 0.55136883 -0.04293968 0.28783888 0.17707571 0.3808975 0.4310673 1.2743347 0.20573212 -0.31580842 0.21591641 -0.45602578 0.054717626 0.14854756 0.26322216 -0.22234915 0.070222 0.7639382 0.65533394 -0.10667974 0.1528272 -0.16872278 0.89478165 -0.20854682 -0.9223927 -1.3713248 0.07043712 -0.023386292 -0.24725345 0.13297193 -0.27621678 1.1824993 0.29142776 0.11478274 -0.30803737 0.10689023 0.16626132 0.7222144 0.37309155 -0.052464925 0.05123459 -0.2292179 0.042873666 -0.05145676 0.5450097 -0.8196252 0.21284178 0.2872535 -0.04131345 0.15762125 0.22979516 -0.27115446 0.6373377 0.03586014 0.06856717 -0.2653734 0.13562319 0.36579475 0.27709273 -0.9977155 -0.047968436 0.020046875 0.06336111 -0.21459694 -0.12331105 -0.5667275 -0.09303956 -0.14255022 -0.1045232 0.44684324 -0.55550915 -0.026320638 0.6909071 -0.75417197 0.45410216 1.0646728 0.39425516 0.32791772 -0.6205686 1.1040466 0.38795564 0.021883145 -0.26247388 -0.23550199 0.117538966 -0.09574069 -0.49062592 -0.2476131 -0.10161923 -0.13869636 -0.12918642 -0.055588316 0.4293978 -0.4350458 -0.810624 -0.30816346 -1.0698116 -0.32636508 0.18180624
359 0.9027107 -0.36484456 -0.5601613 1.013205 0.52824384 0.11708089 0.765839 0.075658925 0.07247087 -0.07897854 0.03634322 0.06706675 0.044502135 0.11181507 0.0068258033 0.19158171 0.0020158452 -0.20007949 -0.6447809 -0.13312487 -0.5419985 0.18034819 0.7336063 0.1876366 -0.46299034 -0.3388977 -0.4228231 0.041644063 -0.14864133 -0.23082481 -1.0900975 -0.2633844 0.70796907 0.03700869 -0.17614576 -0.26257592 0.7625154 -0.60599506 -0.5493757 0.510396 0.022557963 0.045492906 0.15219286 0.10749465 0.01783214 -0.05422662 1.0047668 -0.07767248 -0.0031555535 0.5497762 0.53266746 1.3434839 0.54505765 -0.27500063 -0.38598245 -0.15682875 -0.77801764 0.44042817 0.2395772 0.12409375 0.06598807 -0.34152916 0.17037755 0.03496834 -0.21104749 -0.20114154 0.29192126 -0.5715442 -0.4625281 0.36832014 0.2210409 0.5848392 0.18543959 -0.683471 0.36759135 -0.65922344 0.7820125 -0.90133494 -0.42575893 0.86203516 -0.46868312 0.36276644 0.6555081 -0.624856 0.32131225 -0.10217811 0.35760996 0.37110963 -0.26429993 -0.4712321 -0.46692765 0.013040067 0.05591012 0.28936684 -0.8299541 -0.3793157 -0.43296427 -0.39411235 0.39498028 0.21664165 -0.60400826 -0.24037062 -1.1630147 -0.0961313 0.2597521 -0.62082005 0.4170363 -0.4410201 -0.31351507 -0.07527189 -0.14315586 -1.0549654 -0.14734732 0.44023216 0.5383994 -0.14272764 -0.17738016 -0.17487575 0.3743419 0.22828546 0.52619797 0.102055885 -0.7572587 -0.42355803 0.005986434 -0.161294 0.15286596 0.9581166
591 0.36173183 0.15456921 0.15333836 -0.1709995 0.79154295 0.25526133 0.7004668 0.32732615 0.32206845 -0.3711464 -0.14686331 -0.8299385 0.386376 0.15082017 -0.27325118 0.96024835 0.3178448 0.13304077 -0.55120564 0.53028274 -1.1774219 0.3614634 0.4024184 1.221512 -0.28030828 -0.56776077 -0.16842397 0.088478595 0.5634821 -0.053743996 0.5638306 -0.05800566 0.2163143 0.43910444 0.09183241 -0.17458673 0.5563415 0.031558305 0.5714607 -0.5157283 -0.3068488 -0.47365493 0.13991946 0.10235311 0.30726632 0.2469495 -0.04169684 0.50975084 0.27152982 0.16326633 -0.7820524 0.9165823 -0.06530949 -0.77564996 0.19908051 0.059448015 0.30231145 -0.3081431 0.19418462 0.11356448 0.6823815 -0.9500108 0.30399406 -0.41003126 -0.8777328 -0.36186418 0.07640731 0.51435477 0.5538904 -0.34736758 0.4639692 0.26129058 -0.15761565 -0.40729445 -0.026715135 0.23079044 0.3566448 0.2345268 -0.07613813 -0.5704553 0.43911463 0.37933466 -0.4071243 -0.58852977 -0.11586455 0.22034368 -0.041532703 -0.6610617 0.046279024 -0.44154266 -0.05372703 0.59393775 -0.0756928 -0.07802332 -0.38964224 -0.025943927 0.19178034 0.0047180527 0.7790563 0.032241646 0.12991041 0.8294489 -0.2460792 0.7288123 0.25595284 -0.18391614 0.26785147 -0.7138883 -0.7953216 -0.8161359 -0.02626713 0.01659231 -0.56382924 0.35215676 0.14812298 -0.2154389 0.13150631 -0.3823743 -0.47258455 -0.055917207 -0.4107167 0.11794596 0.11173421 0.50859547 -0.28885812 0.19040625 -0.03783476 0.13659385
967 -0.14369002 0.3417924 0.28981173 -0.7010094 -0.53185415 -0.46714512 0.10265701 0.031991433 0.5601012 0.52270925 -0.37357157 -0.32310358 0.1504329 0.57045937 -0.023306295 0.84327817 0.21543133 0.36664796 0.15389553 0.18819386 -0.4955586 -0.31572187 0.40753815 0.83821255 -0.62821174 -0.52735966 -0.1551683 0.5077718 0.11664515 0.2458761 0.60049456 0.14575058 -0.0076070162 0.8769439 0.20674782 -0.30406952 0.08887844 -0.429451 0.42661238 0.1452571 -0.2772289 -0.28551602 0.0060369805 0.78460264 0.09110253 0.28529283 0.34194684 -0.4056851 1.079797 -0.27512524 -0.2573412 0.6149911 0.50537133 -0.1495092 -0.0031618304 -0.558786 0.34710595 -0.4837662 1.1463056 -0.4267668 0.13746165 0.003664369 0.037444662 -0.15981424 -0.30807987 0.12195354 -0.064100176 0.550806 0.40904552 0.0124468235 0.14641881 0.4257171 0.0346839 -0.45077077 -0.5805215 0.49208012 0.3121692 0.6839526 -0.16376641 -0.023822842 0.2765187 0.29670954 -0.096295424 -0.5347414 -0.42135042 0.6514059 -0.18648185 0.48027867 0.22406332 0.38719723 -0.0692219 0.66514057 -0.4368899 0.43531606 -0.78671855 -0.30682552 -0.36090168 -0.25109738 -0.19861193 -0.3370964 0.3538618 0.5217265 -0.5811428 1.1401533 -0.4599158 -0.7270188 0.08689436 0.09038875 -0.4425579 -0.25986907 -0.7337174 -0.622656 -0.32953167 0.038511693 -0.26619822 0.32798058 -0.5365689 -0.07859817 -0.9606517 -0.48791975 0.21553247 0.00033414987 0.20966381 0.24427347 0.54634327 -0.18117422 0.29285455 0.2883982
1459 0.25571597 0.8667401 -0.08195101 -0.06097819 -0.054742 -0.17406847 -0.1745714 0.08999103 0.6286635 0.7062643 -0.1435682 0.002268376 0.5337841 -0.83967614 -0.25540584 -0.30854467 -0.17696463 -0.11889594 0.7407686 0.34837243 0.061045814 0.097595796 0.17568643 0.58341706 0.1598191 0.68708605 -0.12133789 -0.052380346 0.30473065 -0.27498862 0.2650698 0.8377492 0.22690372 0.6464684 0.64113903 0.07339355 0.088266075 -0.429544 -0.42634937 -0.14789872 -0.23631191 -0.2942109 0.6964756 0.5829731 0.17586528 -0.37095708 -0.043032918 -0.31764773 0.27067062 -0.19313584 -0.3509413 0.53194773 -0.7098346 0.13896501 -0.05604728 -0.2440746 0.098038375 -0.17157301 0.09770886 0.27870634 -0.33666405 0.58998364 0.15767054 -0.12755014 -0.64145136 0.41094917 0.44023916 0.21737197 -0.38694704 0.02997649 0.72262734 -0.10836316 0.44222903 -0.20287073 -0.61114335 0.5415114 0.91382694 0.14320716 -0.3359781 -0.3638448 0.2080242 0.05982751 0.4329323 -0.055688936 -0.03811431 0.5034912 -0.40093037 -0.6863561 -0.09508562 0.5480719 -0.34109938 0.38553596 -0.72299683 -0.07410807 -1.1493485 -0.041454803 -1.2868596 -0.03397945 0.10898041 -0.72887474 0.16099828 0.12292512 -0.52412456 0.40085956 0.5421465 -0.78756326 0.4104266 -0.37990743 0.24137163 -0.18158227 0.3702104 -0.51563036 -0.35679817 0.19007361 0.13255164 -0.18223435 0.27909723 -0.33712217 -0.09329644 -0.41466013 0.15971534 0.3579912 0.08789294 -0.3766833 -0.5278497 -0.06524635 0.57389426 0.22846141
881 0.5469776 0.5513547 -0.24663101 0.6214879 0.58511746 -0.7696662 -0.8565886 0.74298984 0.47987935 0.14139408 -0.21381003 -0.23991501 -0.13580357 0.2262636 0.54410255 0.15538245 -0.46976542 -0.19055174 0.19186841 0.043860603 -0.68000597 -0.1692314 0.24777907 0.3503319 0.39854884 -0.79615575 -0.7068106 -0.07879311 0.23553157 -0.48686305 -0.35372758 -0.6697552 -0.5079578 0.105654106 0.10105235 -0.08765815 0.729624 0.18821959 0.04844167 -0.3559353 0.57603407 0.41933605 0.3479357 0.39637285 0.30987594 -0.15362959 0.14212555 -0.16509211 -0.37287375 0.6910243 -0.07854958 0.037159953 -0.21191259 -0.74336165 -0.18786865 -0.8017644 0.46797016 0.7495787 0.24205177 0.46997693 0.16846612 -0.35388073 -0.019761011 -0.15573435 -0.6340192 0.2527414 0.49228206 0.48129922 -0.010306985 0.43781808 0.24490592 0.26893264 -0.43101794 0.11811239 -0.43881437 0.30194852 0.23770034 -0.09324756 -0.5802014 0.35928518 -0.17296268 -0.08137712 0.64106196 0.77846414 0.45443925 0.17262082 0.45665732 0.69498396 -0.34423807 -0.17434858 -0.572725 -0.2537144 -0.16201153 -0.1565992 -0.2897104 0.11954723 -0.49100804 -0.67837244 0.6270794 0.29685634 0.23193441 -0.42414182 -0.46339485 0.09922525 0.58094454 -0.30058315 0.411489 0.31052673 -0.6059811 0.26663458 -0.21140161 -0.25315985 0.41579637 0.061180983 0.13039182 -0.18863875 -0.5428081 0.46597514 0.4561087 -0.41771856 1.0068967 -0.36044377 0.0858216 0.1438579 0.90973103 -0.37103543 0.12823264 0.262024
99 0.012863794 -0.34667444 0.2566197 -0.04747938 -0.34220627 0.9165377 -0.25758025 0.07623917 0.12973318 -0.47996715 -0.17126578 -0.07334711 0.24108982 -0.021159584 -0.26813602 0.06001032 -0.43970537 0.017692558 -0.4142709 0.12899111 -0.15629867 -0.08588789 0.88471025 0.8270743 -0.9030485 -1.0171671 -0.24999154 -0.17757483 -0.5811144 -0.22304784 0.05162654 -0.18060695 -0.013705535 -0.37638846 0.44672576 -0.2596177 0.13376649 0.5502537 -1.0739428 -0.10029779 -1.1651456 -0.721098 -0.1296047 0.01577933 0.58150434 -0.21112199 -0.16994442 -0.1594165 -0.14737009 -0.08747867 -0.404172 0.14805503 0.5518238 -0.21763478 -1.1370984 0.44139734 -0.6059182 -0.47263515 0.095358394 -0.8051947 -0.54233116 -0.20023724 -0.53109896 -0.20394109 -0.52227616 0.49101844 0.24350862 0.43594223 0.9790691 -0.32574752 0.8083756 0.3129709 0.2503178 -0.36035123 -0.05816565 -0.08120639 0.20068102 -0.7961336 0.12279228 0.5615761 1.0233337 0.2537602 -0.61286354 -0.109449185 -0.7941651 0.9906201 0.15399213 -0.5854661 -0.61092216 -1.2125233 -0.37562874 0.44408348 0.19395627 0.1820821 -0.73684114 -0.19183122 0.23902972 -0.66282773 -0.17879042 -0.21351406 0.034081712 0.85953164 -0.69080716 0.84255505 1.0545324 0.34886512 -0.136485 -0.38852322 0.75273675 0.39874813 0.16866623 -1.0491039 -0.34324062 0.2876263 0.16778581 -0.8170432 0.3115688 -0.3633227 -0.054333325 -0.54461795 0.8378211 0.0008881153 0.2065192 -0.15147132 0.6072084 -0.742382 0.48683137 0.8587377
2220 -0.74386734 0.23649524 -0.64864814 -0.39353642 -0.41206485 -0.36356118 -0.3227189 -0.5805608 -0.37805006 0.19319494 0.113812745 0.22567266 0.20687158 -0.12471074 0.17710884 -0.23773299 0.5133532 0.41045418 0.6075977 1.0850384 -0.016242143 -0.066183396 0.7314082 0.0677986 0.4260968 -0.7608361 0.9607011 -0.21760572 0.40154222 -0.1930022 0.9205776 -0.10905669 0.19003524 0.04437443 0.3951872 -0.48407248 0.06842053 0.8098744 -0.6449099 -0.12146237 0.17209151 -0.91707444 0.6466 0.8738847 -0.4255202 0.0835684 -0.45233393 -0.37016922 -0.00685297 -0.19717006 0.5819063 0.24892691 -0.2753776 -0.11824726 -0.56860954 -0.031988986 -0.34141248 -0.2745213 -0.32658875 0.16337089 -0.36118335 0.14642675 0.13607186 -0.27238268 -0.9732748 0.5878214 0.78792346 0.11359626 -0.111690745 -0.01778407 0.2195479 0.53616816 0.66106826 -0.10510023 0.70857877 0.10630356 -0.34939355 -0.32663983 -0.18718188 0.1561307 -0.45694834 0.08844393 -0.12465989 -0.31203932 -0.6649742 -0.5960924 -0.29538417 0.42365432 -0.377025 -0.4545156 -0.45058304 -0.68426526 -0.023259377 0.25743595 -0.41534856 -0.9189674 0.30066812 -0.47725996 0.5337723 -0.1941968 0.33524373 0.25999504 -0.7468196 0.9774867 0.35470033 0.48567522 0.54666084 -0.47789454 0.3306296 0.20871387 0.48057452 -0.092844784 -0.30239326 -0.006766665 0.00862313 -1.2072072 0.20705228 -0.03813414 0.5747166 -0.12805036 0.2593565 0.3279461 0.4747333 -0.09330681 0.18380328 0.006853478 0.43753642 0.046464574
809 0.8936685 -0.11170576 -0.24873419 -0.05656123 -0.16377856 0.5143513 -0.04818797 0.24980085 0.084088296 -0.1413563 0.23683354 0.007739487 -0.02657627 0.23702618 -0.138653 0.65020293 -0.03579436 -0.19382674 0.47479713 -0.605498 -0.82994366 0.10176249 0.20613958 -0.034838445 -0.92515516 -0.7645379 0.43447107 0.45162356 0.49284014 0.05158104 0.009467218 0.5961317 -0.21876043 -0.08017036 0.4259811 -0.79929173 0.4633667 0.85771257 -0.3022569 -1.0476465 -0.70948285 -0.67583364 0.2323551 0.3567551 0.3053808 0.4031323 -0.14441176 -0.060334876 0.83662933 -0.70928866 -0.71337837 1.0757446 -0.7592692 -0.066175826 0.09669347 -0.77681124 0.558722 -0.12855454 -0.044281624 0.30485824 0.78399867 0.23761882 0.4377964 0.78664404 -0.9182734 -0.33887625 0.64936507 0.73937976 0.39929116 0.3840845 0.61926496 0.5275924 0.39780205 0.14462158 -0.9905784 -0.61932784 -0.82135797 -0.21226016 0.6161707 0.107349016 0.0708957 -0.80502343 -0.15541984 -0.8823699 -0.12723605 0.0957975 -0.071831435 1.0945528 -1.1106786 -0.57915545 0.12986688 0.0023186456 -0.16007058 -0.15198731 -0.58830917 -0.28877613 -0.30002743 -0.2106675 -0.24614689 -0.21834989 0.30271146 0.6617064 -0.51713306 0.34607652 0.4452252 -0.29727444 0.07442134 0.34947422 0.1331586 -0.03195237 0.36628985 -0.61148494 -0.36361232 -0.3036726 -0.16420428 -0.9611774 0.029558586 -0.85655594 0.34397802 -0.08201447 0.49153468 -0.39165923 0.59692293 -0.52420217 -0.226726 -0.33544204 -0.24147807 0.32414123
558 0.4086769 -0.017174024 0.0638138 -0.123711236 0.6002094 0.65596104 -0.14486593 0.59706354 0.47526258 0.2074507 -0.29102814 -0.92635125 0.15055704 -0.36178875 0.7770581 -0.26072133 -0.041219603 -0.45340872 0.20590362 0.54247695 -0.37682185 0.7501945 0.39617655 0.25252938 -0.37380978 -0.308971 0.14813244 0.017713523 0.3429483 0.088084854 1.1027359 0.13461013 0.6323686 0.7178486 0.37532416 0.3315005 0.2845508 0.017250065 0.23730205 -0.24441597 0.042812556 -0.50649834 0.22947174 0.41251785 -0.20316213 -0.31505728 0.59349144 -0.3953105 0.3592781 -0.097818404 0.025553873 0.83985174 -0.4495011 -0.49501652 0.1754224 0.11498097 -0.77370423 0.1665534 0.24300165 -0.031755075 -0.49409625 -0.03673614 -0.5668728 -0.31388208 -0.13362704 -0.9531789 1.1535859 0.42594424 -0.58167595 -0.28098625 -0.1748925 -0.5669578 0.395786 0.20974772 -0.15244581 0.30032957 0.49443215 -0.45829687 -0.07422434 -0.94600576 0.03986081 0.061912287 0.760631 -0.50183284 -0.18583037 -0.4097279 -0.13711144 -0.6692939 0.15605392 0.81859225 -0.31007597 0.8709445 0.5173644 0.31269774 -0.03337952 0.4012872 -0.13594267 -0.5813853 0.39809334 -0.24847957 -0.15894215 0.59165466 -1.0990602 0.7649383 0.8491632 -0.23177177 -0.38849863 0.32426152 0.4072282 -0.066727474 0.70579785 -0.118418485 -0.63988405 -0.3281535 0.14593607 -0.56876266 0.06622133 0.00801336 0.6662305 -0.46404615 0.79183894 -0.28824225 0.5893863 -0.9370912 -0.7233627 0.20569293 -0.5625579 -0.16494016
1550 0.7444599 -0.08030305 -0.031148778 0.038360048 0.5489663 0.4241415 -0.33755773 0.1916747 -0.18688793 0.27057457 -0.32492435 -0.9471847 0.22397669 -0.35727537 -0.16367848 -0.16633472 0.013157769 0.1301259 -0.35625967 -0.08226268 -0.07262211 0.6495068 -0.71256226 0.085507214 -0.08939871 -0.5313042 0.2147391 0.055237606 0.17107174 -0.5096339 0.3098884 -0.3728869 0.040902477 0.081550956 0.0040338873 -0.025859546 -0.08540013 0.1670418 -0.12943318 -0.12494559 -0.49779254 -0.33777577 0.3852971 0.5974389 -0.2516717 -0.12799455 0.41888848 -0.31606436 -0.43733284 -0.06665841 -0.043687545 0.8786499 -0.46254072 0.37878618 0.64491665 -0.1777996 -1.1241841 -0.5078528 -0.0064501343 -0.6189806 -0.19938605 0.031100193 -1.080449 -0.15499942 -0.5280011 -0.90332544 0.72377837 0.964999 -0.24911259 -0.29347208 0.7038367 -0.06640668 0.6949198 0.6806301 -0.02488878 -0.35637093 0.055656113 -0.7230763 -0.34078926 0.023939542 0.7949025 0.61701375 0.065569475 -0.35940093 -0.76867765 -0.08277687 -0.486615 0.038219955 0.057790644 -0.13755256 0.122068144 0.8368523 0.2115142 0.26880357 0.14295533 0.55991733 -0.34532928 -0.60579634 -0.57088315 -0.43613815 0.1550905 0.2585433 -0.36757717 1.0681903 0.96840644 -0.591381 -0.29068646 0.25666398 -0.1596179 -0.2365409 -0.21906954 -0.7048663 -0.12724495 0.44706893 0.22472195 0.12419057 -0.53107405 0.48489338 0.34091842 -0.54543287 0.49037132 -0.2427165 -0.14362481 -0.423903 0.95199794 -0.35919952 -0.305398 0.6885308
426 0.31377247 -0.00537317 -0.5017535 0.36668998 0.3232638 -0.11758866 -0.05151104 0.5593909 -0.043526936 -0.30754477 -0.63056636 -0.030058285 0.15025125 0.05806937 -0.42329994 0.119906925 0.038899828 -0.21422061 -0.058944352 -0.095065884 -1.0691192 0.2133037 -0.4216396 0.7257076 0.35169995 -0.83944523 0.7769524 0.23896585 0.31429514 -0.5089686 0.60352427 0.4605916 0.58254266 -0.64443237 -0.1508319 -0.2949089 -0.35822913 0.11052273 0.17911844 -0.22799668 -0.120371774 0.330507 0.6662499 0.013827441 -0.49652416 -0.048478015 0.10046607 -0.7489517 0.5926855 -0.24479201 0.11028274 0.19818975 -0.6025437 0.036042057 -0.52502304 -0.1989909 -0.16978887 0.072470844 0.13171725 -0.15690635 0.07810001 -0.5423318 0.16981256 0.47363803 -0.69789857 0.080838084 0.63620794 0.46276388 -0.08119612 0.6048268 0.14623822 0.055837024 -0.19021836 -0.4348278 -0.19658801 -0.84897524 0.49271658 0.30333486 0.22735092 0.7499175 0.58087736 0.69134885 0.28916228 -0.60268205 0.7913375 -0.384448 0.8540854 0.15088707 0.30013397 -0.19927108 0.48336893 0.15787129 -0.4527323 0.23665448 -0.2619446 0.650105 -0.48144522 -0.027520949 -0.399901 -0.20829771 -0.20347658 0.045235865 -0.75136226 0.035500124 0.41766903 0.09364707 0.3169053 -0.37678677 -0.07570811 -0.5898299 -0.3489123 0.452941 -0.42263442 -0.5141501 0.8934077 -0.2936044 1.3338681 -0.54058236 -0.25574407 -0.5507844 0.5101928 0.5561392 -0.13106415 -0.49811113 -0.046496 0.39698026 -0.32236916 0.7304622
129 -0.41886818 0.590061 -0.3657429 -0.22855374 0.21551257 -0.2076076 0.100575574 -0.15170458 -0.2399637 0.19272912 0.088975094 0.102048755 -0.010181009 -0.06043836 0.590004 -0.39833474 0.15386745 0.45054427 0.6713031 0.7500225 -0.7300211 -0.2589157 0.60519254 -0.03390394 0.28710923 -0.61883986 0.45288542 -0.2803011 -0.4171823 -0.4092026 0.50292593 -0.08934781 0.30281612 -0.24214958 0.037531488 -0.7126175 0.12493704 0.61884105 -0.12754026 0.1442986 0.07507368 -0.8209394 0.8040575 0.8221238 -0.67723984 0.3476021 -0.8855245 0.22034808 0.5234934 0.11294699 0.21490742 -0.034538087 0.09301027 -0.6547968 -0.4711448 -0.090532295 -0.32882783 0.063342065 -0.009887277 -0.28082395 -0.34541556 -0.016972844 -0.099808335 -0.32163757 -0.4235569 0.1324857 0.11809363 -0.034717377 0.119229995 -0.11503693 0.7616053 0.13756812 -0.34672898 -0.021527627 -0.10062045 0.3388508 -0.18084355 -0.17384787 0.375704 0.4728577 -0.5367391 0.36775902 -0.25806692 -0.2925822 0.19024 -0.3036561 0.045663606 0.06592478 -0.10196226 -0.027222091 -0.24854352 -0.1637239 -0.06377149 0.77187216 -0.7199329 -0.20022373 0.5370053 -0.52299905 0.34340963 0.54848564 0.5600677 0.24974377 -0.59257275 0.36121237 -0.2025635 -0.12071365 0.46536767 -0.14511237 0.5020863 -0.30685622 0.21720837 -0.31682247 -0.12252616 0.45757207 -0.24859156 -0.63813806 0.20313992 0.2589825 0.4889982 -0.43139994 0.3404872 -0.11257206 0.22014193 -0.39561427 0.72554606 0.3074307 -0.24695902 0.0014951207
640 0.15226242 -0.13871142 0.18951184 0.02012806 0.7910558 -0.4483842 0.32994425 1.1301367 -0.03588829 -0.55782455 -0.19263223 -0.15118001 0.8768403 -0.10087973 0.067379475 0.73134553 0.47224587 0.35150808 -0.29724243 0.2086544 -1.3423114 -0.12514558 0.13217795 0.76130044 0.18614909 -0.9120776 -0.36521086 0.1871197 0.57732815 0.048891902 -0.15240248 0.44691995 0.62807375 0.18902552 0.35566604 -0.38100684 0.17627853 -0.069544494 -0.029455703 -1.129794 -0.25592652 -0.4560372 -0.06559003 0.21253616 -0.2642507 0.13605094 0.5958869 0.12843278 0.26618204 0.31812298 -0.29784828 0.6464118 -0.7156006 -0.43241227 -0.4572455 -0.17905523 -0.37087747 -0.5300481 0.3210362 0.1565556 0.43209386 -0.8922685 0.09642564 -0.12736812 -0.27950358 -0.11778642 -0.1705806 0.43094897 0.6095763 -0.075370654 0.53715754 0.658781 0.25011042 -0.33713466 -0.31946716 0.15298931 0.2717 0.75755256 0.084673926 -0.42439547 -0.16476771 -0.08404943 -0.17305073 -0.5650894 -0.36184868 -0.10887589 -0.15303832 -0.31560186 0.10437664 -0.23407958 -0.10639214 0.6529617 0.09695855 -0.055400405 -0.48479632 -0.009343462 -0.04541845 0.010023117 0.4255168 0.43547148 0.06837612 0.46778545 -0.1899662 0.3343908 0.140401 -0.23379394 0.7513211 -0.50260913 -0.57059723 -0.44032592 0.13564219 -0.06327414 -0.37097517 0.26273102 0.13027646 -0.17793925 -0.3528654 0.12581132 -0.7022385 0.47059956 -0.17402534 -0.6481682 0.40434986 0.49328128 -0.35674557 0.9379895 0.32066843 0.23826818
1484 0.7044963 -0.16518302 -0.18518625 0.44319683 0.2760654 0.20026006 0.038529385 0.036640193 0.41820598 0.06994733 0.72212005 -0.5431019 0.30928397 0.33919165 -0.7238604 -0.0070423894 0.32509044 0.36713862 -0.49194095 -0.3972989 -0.15300536 0.8438152 -0.3467906 1.1358565 0.20131831 -0.64155906 -0.45883852 0.30790702 0.4318671 -0.26632234 0.3473949 0.21911833 -0.46544927 -0.36706075 0.6736935 0.47048432 0.024089891 -0.2251394 -1.0317776 -0.30174965 -0.13185154 0.04407697 0.82503 0.17910345 0.017799947 1.2388663 0.0057290336 -0.29903388 -0.19725451 0.10938136 0.21276483 0.4115803 0.42766267 -0.57595015 -0.363148 -0.25712496 -0.5657492 0.8378566 0.09913954 -0.49465224 0.46679378 -0.10761953 0.6127489 -0.029024554 0.015803037 -0.042783413 0.7930912 -0.10670607 0.23829919 0.4154135 0.121433124 0.44321927 -0.9499091 -0.35337326 0.18625139 -0.14813192 -0.18669319 -0.059086014 0.2811233 -0.16558616 -0.2406373 0.4414566 1.2103199 0.16035001 0.023265705 0.29904646 -0.83738464 0.39260736 -0.88106424 -0.036592934 0.33388567 0.62067693 0.26735407 0.5362572 -0.08385807 0.41414034 -0.86113703 -0.15329568 0.11308865 -0.16009943 0.38874188 0.26325932 -0.8126437 0.8286141 0.9245325 -0.09916723 0.11716039 -0.35719675 -0.8302786 -0.09825992 0.09833141 -0.2723294 -0.89223444 0.9878368 0.37408838 -0.009950387 0.28243464 -0.6447686 0.2879306 -0.36304948 0.30028424 0.1917673 0.00047664222 -0.0850517 -0.2869543 -0.428857 -0.37131628 -0.02287521
2421 0.7608801 0.41945788 0.61180097 0.029530691 0.034055952 -0.052609067 -0.593171 0.9024642 0.51723105 -0.31768152 0.36450508 -0.7535516 0.36125386 -0.8386523 0.18924773 0.5112163 -0.20916127 0.27303433 -0.1435002 0.33961678 -0.18980181 0.16022448 -0.4290669 -0.15549752 0.039988164 -0.026221206 0.7758632 0.82369345 0.16567531 -0.45724177 0.09886774 -0.66553545 0.43131173 0.80935574 -0.22493185 -0.45759416 0.33706492 0.20961772 -0.11353268 -0.032549422 0.30443385 -0.33338776 0.35514078 0.72153455 0.09263598 -0.14862905 1.1128154 0.46215335 -0.5392766 0.3085896 -0.43236777 0.70243365 -0.33027002 -0.7524422 -1.0095206 -0.58289313 -0.078476466 -0.122102685 0.5363905 0.12575878 0.535302 -0.14444073 0.11936269 -0.9538699 -0.33073962 -0.424163 0.768113 0.045024645 0.5046689 0.7707488 -0.7269258 0.42183033 0.24116687 0.013078722 -0.0955423 0.44406125 -0.1558281 -0.45394385 -0.32259744 0.53937906 0.86043024 0.5117044 -0.27359414 0.6418571 -0.4042085 0.5850118 0.38942662 0.48868755 -0.6210179 0.58822215 -0.696218 0.3223593 -0.14196324 -0.01988762 -0.19290854 0.13551354 -0.52006036 -0.1188707 0.64906347 0.005838975 -0.0032010945 0.33164224 -0.2073016 -0.0060924436 1.290355 -0.64221364 0.10451486 -0.10225873 0.39258814 0.6220272 0.48195693 -0.7039763 -0.51993215 -0.29966745 -0.06988171 0.18272346 -0.46333966 -0.37617347 0.019612793 -0.33414412 -0.037379146 -0.020577997 -1.1500473 -0.16455668 -0.075551175 -0.70627534 -0.3368982 -0.21669964
1687 0.5727338 0.67797625 -0.78869903 -0.24452965 0.039008345 0.052580573 0.08904019 0.20554647 0.5742419 0.18678345 -0.2889328 -0.37280014 0.51868254 0.16453253 0.35146058 -0.45745528 -0.35840446 0.6612794 0.28464288 0.3258546 -0.19047038 0.22187164 0.8554669 -0.25781214 0.60676706 0.4483605 -0.44691682 0.14204316 0.03804337 -0.07174453 0.23927611 0.7866546 0.6902302 0.5093278 0.35275096 0.053473286 -0.14280505 -0.1324764 0.46396562 -0.22248709 -0.097295426 -0.21295883 0.15309334 0.2963098 0.15627886 0.15801647 0.52163076 -0.7675231 0.16510668 -0.09035528 -0.2645582 0.22889632 -0.8400189 -0.61896163 0.18707433 -0.43477517 0.17542523 -0.6217054 -0.42416108 0.023852177 -0.016223334 0.7119826 0.22718738 0.23930417 -0.08579381 -0.16431215 0.40019584 0.43038175 -0.36937654 0.032051325 0.43718526 -0.15186365 0.49743956 0.10728072 -0.34487724 0.54669017 0.46410975 -0.7086027 -0.5534673 -0.002071134 0.063213095 0.85340536 0.65259874 -0.30941617 0.47553363 -0.019459562 -0.659565 -0.3647132 -0.47025284 -0.61578 -0.55527616 0.4417746 0.31431773 0.12030966 -0.45754617 -0.09040513 -0.56838286 -0.34800348 0.27325392 -0.30737594 0.48350474 -0.26002374 -0.102321066 0.9556233 -0.4547439 -0.47074515 0.1446574 -0.7247687 1.0443804 -0.4492772 0.09927695 -0.7871327 -0.43700066 -0.059507206 0.23805605 0.05260339 0.33386862 0.055557236 0.681595 -0.030507173 -0.31680924 -0.14770797 -0.09126534 0.07750663 0.12609734 0.35542858 0.4693702 0.35610944
415 -0.55212086 0.44930637 -0.4326779 0.09412683 0.019010356 -0.17045695 -0.3871712 -0.022890624 -0.5138698 0.76678526 -0.060453374 -0.100912966 0.39510012 0.36347833 -0.41151938 -0.1622829 0.0054027424 0.31939462 -0.035358705 1.0924381 0.23835021 -0.27771553 0.7845796 -0.26714444 0.39367613 -0.17742729 -0.07059898 0.12991224 0.4099645 0.008619666 0.2544931 -0.1473627 -0.0030700131 -0.19707644 0.088681474 -0.57738054 -0.025951568 0.72094274 0.22358765 -0.32822216 -0.5860951 -1.3131925 0.5014564 0.2657638 -0.2654688 0.12999688 0.14248018 -0.57337004 0.14754526 -0.36047694 0.21997142 -0.5102031 -0.52324563 -0.267187 -0.21882917 -0.73597336 -0.03401264 -0.30496612 0.5364964 0.040857933 0.36917844 -0.7400086 0.3889516 -0.24145181 -0.47415382 0.07908645 0.17278442 -0.16731782 -0.15386498 0.1682249 0.64414793 0.23529372 -0.07843959 0.08998593 0.024267832 0.43911147 -0.23705763 -0.7462927 -0.010013193 0.5001405 -0.28868398 0.851448 0.65182924 -0.095505804 -0.3010397 -0.56411713 -0.77548295 -0.17957796 -0.4240026 -0.20308368 0.09653396 0.25308478 -0.18468143 0.4289562 -0.30410913 -0.24665207 -0.84768265 -0.42467707 0.1889485 0.5320438 0.63013816 0.09913426 -0.3250389 0.36224437 -0.19473468 0.073773414 -0.075099766 -0.55496746 -0.20790473 0.110209845 -0.062133837 -0.25946417 -0.7776913 0.23163891 -0.33456382 -0.24952024 0.17678618 0.23632322 0.19037081 -0.23477845 -0.55958647 -0.4391434 0.0007130109 0.06280708 0.503711 0.04419263 0.6450175 0.13668528
649 0.25974366 0.29254186 -1.111671 0.6806324 -0.41887888 0.38344437 0.13537207 -0.36779988 -0.21068418 0.11787294 -0.45875043 0.192024 0.71199375 -0.1999207 0.5453306 -0.25149527 -0.17114696 -0.0986686 0.074945726 0.04520021 -0.08224537 -0.66452014 -0.07422884 0.45009428 0.47591108 -0.46288615 -0.33388695 0.3512615 -0.47566232 -0.6315474 -0.3230272 -0.123433895 0.4648266 0.8378106 0.38448438 0.41764474 0.51355726 -0.107348844 -0.026658136 -0.25486192 -0.26329073 -0.0695806 -0.03893321 0.90902025 -0.5305339 0.2979097 0.039998665 -0.78762615 0.16617328 -0.22558582 -0.14712797 1.2725832 -0.8534119 -0.2186747 -0.5111927 -1.33514 0.19734609 -0.25289884 0.24411975 -0.881388 0.72808975 -0.14584576 0.40374583 0.18705451 0.31539696 0.15527575 0.73429835 0.23881352 0.12043321 -0.011211005 0.48269555 -0.010526876 -0.2933848 -0.54611754 -0.46824262 -0.07022495 -0.45687094 0.07406784 0.17793053 0.1250131 0.22816767 0.4717425 -0.52578133 0.041204374 0.64585936 0.6974836 0.3561134 -0.9918457 -0.3137466 -0.5620579 -0.3853218 -0.15526022 0.75176764 0.31958646 0.16541871 0.216437 -1.1409265 -0.535555 0.01081041 0.1956338 0.17679584 -0.3240672 -0.52413386 0.54802555 -0.2563914 0.24110627 -0.03073211 -0.4056068 0.3444478 -0.21229188 -0.026078425 -0.13415316 0.10825964 0.03329426 -0.6062859 1.0680271 -0.24666464 -0.40578347 -0.023288121 -0.22786401 0.21284087 -0.17086671 -0.44530517 -0.49607158 0.16664846 0.8342676 -0.05978234 -0.65798724
1595 1.0016191 0.2516234 -0.56852937 0.74727863 0.21265197 0.6795503 -0.23141536 0.00010875265 0.18182342 0.10760177 -0.22316255 -0.5022724 -0.6980896 0.57094824 0.4993118 -0.25858766 0.38441345 -0.20224875 -0.36329058 0.013546503 -1.2570993 0.8891163 -0.3243057 1.0731221 0.3363007 -0.44147313 0.3457832 0.17867751 0.8217614 -0.7869713 -0.051556073 -0.078241594 0.26453975 -0.23312137 0.23666584 0.12351145 0.254624 -0.6867335 0.5789682 -0.5134811 -0.028006807 0.14414832 0.32392478 0.10255958 0.22528745 0.12130524 -0.35468888 -0.6895931 0.5816185 0.0102193365 -0.46352676 0.00553499 -0.05403885 -0.1638953 -1.2524779 -0.43811637 -0.1392489 -0.3714592 0.34419337 -0.22003274 0.24202374 -0.29418314 0.5173446 -0.5416328 -0.44923258 0.32488176 0.47313243 0.4332798 -0.84072 1.0462531 -0.14248712 0.103398085 -0.31941453 -0.52900964 0.05583934 -0.37142262 0.6282153 0.013470891 -0.104926035 0.41140833 0.22813438 0.6251801 -0.14987463 -0.14094196 0.34994426 -0.21111485 -0.0021822208 0.94007903 0.4093559 -0.32331568 0.7471058 0.67127216 0.24985602 0.25465977 0.2629401 0.4014074 -1.1177162 -0.6208639 0.6591098 -0.3802089 0.35785457 -0.37949634 -0.36418527 0.22863038 -0.26789698 -0.080899134 0.45750648 0.15263274 0.10516235 -0.5500073 -0.21702331 -0.054838095 0.12517974 -0.19167495 0.48647115 -0.36196384 0.32998347 -0.3165542 -0.31562454 -0.49533576 0.6670728 0.1589603 -0.29644868 -0.17322782 0.43718776 0.8792164 -0.43583852 0.48239443
